<?xml version="1.0"?>
<opencv_storage>
<opencv_ml_ann_mlp>
  <format>3</format>
  <layer_sizes>
    140 40 31</layer_sizes>
  <activation_function>SIGMOID_SYM</activation_function>
  <f_param1>1.</f_param1>
  <f_param2>1.</f_param2>
  <min_val>-9.4999999999999996e-01</min_val>
  <max_val>9.4999999999999996e-01</max_val>
  <min_val1>-9.7999999999999998e-01</min_val1>
  <max_val1>9.7999999999999998e-01</max_val1>
  <training_params>
    <train_method>BACKPROP</train_method>
    <dw_scale>1.0000000000000001e-01</dw_scale>
    <moment_scale>1.0000000000000001e-01</moment_scale>
    <term_criteria>
      <epsilon>1.0000000000000000e-04</epsilon>
      <iterations>30000</iterations></term_criteria></training_params>
  <input_scale>
    5.3278556599430713e+00 -1.4898579582539933e+00
    4.1248864890568857e+00 -1.3402161081869481e+00
    3.8152887877989641e+00 -1.4424076338252494e+00
    3.3033815175644876e+00 -1.4888772606236673e+00
    3.0350856551392869e+00 -1.7218686924860100e+00
    3.3356632194152649e+00 -2.3449454435854937e+00
    4.3574076275540321e+00 -3.5106800537275484e+00
    5.0182194347011562e+00 -4.1929065950921292e+00
    5.2182250462653590e+00 -4.4412280681233733e+00
    5.6980200978033722e+00 -4.9685791544057700e+00
    6.3296819469054855e+00 -5.6033821838399289e+00
    6.4281448438413351e+00 -5.7265487109501922e+00
    5.6402831771246875e+00 -4.9009831003608637e+00
    4.5725452455660802e+00 -3.7008885828416820e+00
    3.3617954560376218e+00 -2.3138350709375102e+00
    3.0474619463398893e+00 -1.5329479050158943e+00
    3.1566278475012095e+00 -7.0423260237216134e-01
    4.1019463154531621e+00 -5.0313525065286591e-01
    5.6836200104647077e+00 -4.0942611176218779e-01
    7.2949965626337256e+00 -3.9587001771537378e-01
    3.5460119338238627e+00 -2.1311894377123890e+00
    3.5363195897934094e+00 -2.3815378229608166e+00
    5.2847013481803442e+00 -4.1123373115051605e+00
    5.5600549609041252e+00 -4.4417709526253812e+00
    5.5408679310453159e+00 -4.4225383417386430e+00
    5.4482193277341278e+00 -4.3507559086126619e+00
    5.5300635256726132e+00 -4.4298796801008580e+00
    5.8643183872542428e+00 -4.6239068068639444e+00
    6.2185535199062389e+00 -4.8527916456572413e+00
    6.1142517131684260e+00 -4.7626279069934361e+00
    6.2373591962534949e+00 -4.9374048789161131e+00
    6.6161339101716345e+00 -5.3796800636919304e+00
    6.4845555718468511e+00 -5.2272805466055994e+00
    6.1167062531858498e+00 -4.8550303773232129e+00
    6.1458873343931550e+00 -4.8612617760361596e+00
    5.9743003237762720e+00 -4.6318579040845380e+00
    5.8441707760955239e+00 -4.5021225639150302e+00
    5.3694769803020534e+00 -4.0025545697573728e+00
    3.9831906832633162e+00 -2.6938815611721236e+00
    3.5222866003992905e+00 -1.9781099070130663e+00
    1.2583844377773384e-01 -1.4421709161771923e-01
    3.2564135600686037e-02 -3.0535827121105308e-01
    1.6246167704593407e-02 -6.4796618843687881e-01
    1.2922032108473426e-02 -9.6538222032749410e-01
    1.1911022969214957e-02 -1.0446708841447876e+00
    1.1553557810729347e-02 -1.1426930894482694e+00
    1.2004227547720186e-02 -9.4959287291513195e-01
    1.5475123172867479e-02 -5.6082685672061972e-01
    3.2597201640289758e-02 -2.5284657318523046e-01
    1.0893474580809066e-01 -8.8593816958253857e-02
    8.6626637022238107e-02 -1.5897742467246526e-01
    2.3601917370191679e-02 -3.8993338476785716e-01
    1.2689878745509815e-02 -9.0758972919321235e-01
    1.2092452166309248e-02 -1.4851541271108430e+00
    1.1857647491191579e-02 -1.6164013982723944e+00
    1.2319370379925133e-02 -1.9394543163345326e+00
    1.1725193280743057e-02 -1.6130452812167326e+00
    1.2502901226924726e-02 -8.0275469614220651e-01
    2.4025787711720595e-02 -3.2555264087415708e-01
    8.3068695005997062e-02 -1.0904330536274338e-01
    8.9808459787120445e-02 -1.5993843382577411e-01
    2.2935598910919435e-02 -3.8928898402577056e-01
    1.2353146777458524e-02 -8.7740323822516697e-01
    1.1940674333468803e-02 -1.4208602947331157e+00
    1.1854189514806933e-02 -1.6979608492853662e+00
    1.2100583563311744e-02 -1.8922798996300105e+00
    1.1746522366430315e-02 -1.6718472927794759e+00
    1.2067693800656084e-02 -8.7762171862945115e-01
    2.2046543851911345e-02 -3.4297617106881229e-01
    7.6475869519922079e-02 -1.1772214531389412e-01
    8.5890390266138900e-02 -1.5932279205460634e-01
    2.2550982881112177e-02 -3.9827549821375008e-01
    1.2410311362557746e-02 -9.5948699860181985e-01
    1.2248114419903210e-02 -1.5616509904317604e+00
    1.2247203303393869e-02 -1.8004126886318621e+00
    1.2153672866781392e-02 -1.8437380111263262e+00
    1.1207688397426654e-02 -1.5959014731540611e+00
    1.1648634245674095e-02 -8.9743815872208710e-01
    2.1739418614458231e-02 -3.5399699258228573e-01
    7.7571583090420879e-02 -1.1189707353225677e-01
    8.7201539690741514e-02 -1.4549403194969301e-01
    2.3482123232295229e-02 -3.6539976157920395e-01
    1.2348021145614370e-02 -8.4138618239520269e-01
    1.1583736182894535e-02 -1.4161767057010275e+00
    1.1868293801051815e-02 -1.7642087615847577e+00
    1.2375512712587824e-02 -1.9659177273230040e+00
    1.1726425519542749e-02 -1.6348539234223918e+00
    1.1938895060987937e-02 -8.4849591302079663e-01
    2.3311519080144220e-02 -3.2642175064156076e-01
    8.6913998070528298e-02 -1.0777684929803709e-01
    9.1303121369026602e-02 -1.4853951064371770e-01
    2.4027131807473113e-02 -3.4693947613162740e-01
    1.2177656583514921e-02 -8.7458567903092432e-01
    1.2035196319746807e-02 -1.6445771420982980e+00
    1.2527762515512422e-02 -1.9474369083506800e+00
    1.3142905983033014e-02 -2.2158369682798820e+00
    1.2001581423907715e-02 -1.7962112395028778e+00
    1.2113195909341033e-02 -8.4238518090757752e-01
    2.4642432673945384e-02 -3.1301953167827395e-01
    9.6444596372219651e-02 -1.0541262002216409e-01
    8.2263999249818920e-02 -1.5218289047696248e-01
    2.2898161061402991e-02 -3.7174248403426513e-01
    1.2160295365989003e-02 -9.6342352147862853e-01
    1.2635980277894126e-02 -1.7784507692410945e+00
    1.2677772238995910e-02 -1.7990945093489665e+00
    1.2444430075810619e-02 -1.8853353226821872e+00
    1.1453404844112912e-02 -1.6463684714755220e+00
    1.2120050584308551e-02 -8.2994551943925532e-01
    2.4760067605035387e-02 -3.2534579626047333e-01
    9.2407600393809700e-02 -1.1309644631391691e-01
    8.0755035496394109e-02 -1.5092567313646471e-01
    2.2279421332436961e-02 -3.8996446126988127e-01
    1.2030229667078139e-02 -9.8142025604762861e-01
    1.2451764236519381e-02 -1.6954023292079285e+00
    1.2417516704488924e-02 -1.6500310558878644e+00
    1.2132887898027789e-02 -1.7586005630716708e+00
    1.1458644325174558e-02 -1.5722635281628805e+00
    1.2298579388637270e-02 -8.3731421236771286e-01
    2.3917335348654801e-02 -3.4038964301065522e-01
    9.2766273172484121e-02 -1.1591125646066415e-01
    8.4805868250671837e-02 -1.5332202545051576e-01
    2.3271608730867734e-02 -3.9609064947275957e-01
    1.2959170104774296e-02 -9.4289459599871983e-01
    1.2696419084155926e-02 -1.4436172793946693e+00
    1.2693177525365612e-02 -1.5189350165884929e+00
    1.2181659520696969e-02 -1.5956128575081523e+00
    1.1541908139038362e-02 -1.4207144159685186e+00
    1.2619305537751752e-02 -8.3074912006627599e-01
    2.4388531310014245e-02 -3.4564435753158118e-01
    8.2046247535091987e-02 -1.1107968698758353e-01
    1.0826478776195103e-01 -1.4747316880028064e-01
    3.1524089003356431e-02 -3.1714056730862428e-01
    1.7421294709730126e-02 -6.5641449627462978e-01
    1.4521086765988693e-02 -8.8158723390571780e-01
    1.3298163593998314e-02 -1.0144858255336084e+00
    1.2823478041568370e-02 -1.0506740931073872e+00
    1.2699792100743450e-02 -9.4804883403413143e-01
    1.5265556843653097e-02 -6.5344837015074464e-01
    3.0986879287126970e-02 -2.8730812473277645e-01
    1.2009898243632340e-01 -9.8487598753858097e-02</input_scale>
  <output_scale>
    5.2631578947368418e-01 4.9999999999999994e-01 5.2631578947368418e-01
    4.9999999999999994e-01 5.2631578947368418e-01 4.9999999999999994e-01
    5.2631578947368418e-01 4.9999999999999994e-01 5.2631578947368418e-01
    4.9999999999999994e-01 5.2631578947368418e-01 4.9999999999999994e-01
    5.2631578947368418e-01 4.9999999999999994e-01 5.2631578947368418e-01
    4.9999999999999994e-01 5.2631578947368418e-01 4.9999999999999994e-01
    5.2631578947368418e-01 4.9999999999999994e-01 5.2631578947368418e-01
    4.9999999999999994e-01 5.2631578947368418e-01 4.9999999999999994e-01
    5.2631578947368418e-01 4.9999999999999994e-01 5.2631578947368418e-01
    4.9999999999999994e-01 5.2631578947368418e-01 4.9999999999999994e-01
    5.2631578947368418e-01 4.9999999999999994e-01 5.2631578947368418e-01
    4.9999999999999994e-01 5.2631578947368418e-01 4.9999999999999994e-01
    5.2631578947368418e-01 4.9999999999999994e-01 5.2631578947368418e-01
    4.9999999999999994e-01 5.2631578947368418e-01 4.9999999999999994e-01
    5.2631578947368418e-01 4.9999999999999994e-01 5.2631578947368418e-01
    4.9999999999999994e-01 5.2631578947368418e-01 4.9999999999999994e-01
    5.2631578947368418e-01 4.9999999999999994e-01 5.2631578947368418e-01
    4.9999999999999994e-01 5.2631578947368418e-01 4.9999999999999994e-01
    5.2631578947368418e-01 4.9999999999999994e-01 5.2631578947368418e-01
    4.9999999999999994e-01 5.2631578947368418e-01 4.9999999999999994e-01
    5.2631578947368418e-01 4.9999999999999994e-01</output_scale>
  <inv_output_scale>
    1.8999999999999999e+00 -9.4999999999999996e-01
    1.8999999999999999e+00 -9.4999999999999996e-01
    1.8999999999999999e+00 -9.4999999999999996e-01
    1.8999999999999999e+00 -9.4999999999999996e-01
    1.8999999999999999e+00 -9.4999999999999996e-01
    1.8999999999999999e+00 -9.4999999999999996e-01
    1.8999999999999999e+00 -9.4999999999999996e-01
    1.8999999999999999e+00 -9.4999999999999996e-01
    1.8999999999999999e+00 -9.4999999999999996e-01
    1.8999999999999999e+00 -9.4999999999999996e-01
    1.8999999999999999e+00 -9.4999999999999996e-01
    1.8999999999999999e+00 -9.4999999999999996e-01
    1.8999999999999999e+00 -9.4999999999999996e-01
    1.8999999999999999e+00 -9.4999999999999996e-01
    1.8999999999999999e+00 -9.4999999999999996e-01
    1.8999999999999999e+00 -9.4999999999999996e-01
    1.8999999999999999e+00 -9.4999999999999996e-01
    1.8999999999999999e+00 -9.4999999999999996e-01
    1.8999999999999999e+00 -9.4999999999999996e-01
    1.8999999999999999e+00 -9.4999999999999996e-01
    1.8999999999999999e+00 -9.4999999999999996e-01
    1.8999999999999999e+00 -9.4999999999999996e-01
    1.8999999999999999e+00 -9.4999999999999996e-01
    1.8999999999999999e+00 -9.4999999999999996e-01
    1.8999999999999999e+00 -9.4999999999999996e-01
    1.8999999999999999e+00 -9.4999999999999996e-01
    1.8999999999999999e+00 -9.4999999999999996e-01
    1.8999999999999999e+00 -9.4999999999999996e-01
    1.8999999999999999e+00 -9.4999999999999996e-01
    1.8999999999999999e+00 -9.4999999999999996e-01
    1.8999999999999999e+00 -9.4999999999999996e-01</inv_output_scale>
  <weights>
    <_>
      9.9154035801944596e-01 -1.8485778742803969e+00
      6.5548388786939671e-01 -5.9454737337794175e-02
      1.6884229122341206e+00 -8.4837469925884446e-01
      -1.4187988507937934e+00 -1.7545458132607619e+00
      -1.3302970073629936e+00 -6.4321921921274594e-01
      -8.1371394092398031e-01 1.3954903162361283e+00
      -1.7812752748198781e+00 4.9822548374347603e-01
      7.9257425328923181e-01 2.1312086423620330e-01
      -9.0969996679919196e-01 3.6093276910878593e+00
      -3.7739198247632133e-01 -1.9193675990800931e+00
      -1.2421456212590904e+00 -3.9238795691630834e-01
      3.3218278940866739e+00 -2.4809172762695297e+00
      1.5804866467925103e+00 -1.2685782228165694e+00
      3.2551554852596143e-01 -6.1020215151118926e-02
      4.2871545668903249e-01 1.7264078484953402e+00
      8.8181886202178561e-01 3.6929724385922086e-01
      2.4002529501891718e+00 -4.8968137443139481e-01
      3.4759406637146234e-01 2.5124145922352108e+00
      -2.2966363387521241e-01 1.3578664490133840e+00
      1.1834481799955332e+00 5.7454673285884716e-01
      -2.8480152705424508e+00 1.3508086421427121e+00
      -2.2200582261041806e+00 -5.2574965876234170e-02
      3.0398335174743729e+00 2.4646712586583361e-01
      3.9861950138750153e+00 8.7770757598228577e-01
      1.6076733055292423e+00 -2.3821334991992651e+00
      9.4636161412910383e-02 1.8617296172857263e+00
      -3.9175881479808317e-01 1.8172795262175641e+00
      1.6071531007414805e+00 3.7626447729653618e+00
      2.0848772545062011e+00 3.6993623432130844e+00
      -1.5440884711406937e+00 -3.6670843577207379e+00
      5.2413676326130387e-01 1.2247570921397839e+00
      -1.9118841537320781e+00 -3.3319930373776905e+00
      1.5983624460460919e+00 -3.9194017801042378e+00
      1.3453853709997026e+00 -6.5185253392189679e-01
      1.8194682177169068e+00 3.2585561108366203e+00
      2.8756328628225708e-01 8.9802694071789912e-01
      -1.1103803285172922e+00 -8.7921079507552891e-01
      1.6399069925660774e+00 1.0051778094959425e+00
      -3.4711522521861240e+00 2.6349204381860920e+00
      -2.2412305719264988e-02 1.9162598584749353e+00
      9.6993086484936586e-01 -1.3787700049699032e+00
      -6.0536526108264255e-01 -2.1051551850362773e+00
      -2.3565159165211598e+00 3.7292853677647049e+00
      3.5178756323920424e+00 2.1017790346834841e+00
      -3.5079106652778885e-01 -3.4770276515513983e+00
      5.7370875156517531e+00 3.8523891068980278e+00
      6.5524315429476987e-01 1.5681630708890162e+00
      -4.4725996986167686e+00 -1.6224028561188434e-02
      -2.3881167231622169e+00 3.2751702202377979e+00
      -2.7050120260540416e+00 1.8177159411523225e+00
      2.0777235563394850e-01 2.2115022681347591e+00
      1.5117065679063526e+00 1.2526340663812385e+00
      -1.4287537790731969e-02 2.4363004096887257e+00
      4.3018026236238880e+00 4.0442334447795969e-01
      1.5505925144768977e+00 3.8954557462085104e-01
      2.4225352885543359e+00 -4.6354904329903840e-01
      3.6086247310058051e+00 -7.1062101702983460e-01
      4.1662506163496182e+00 -1.4841992498499266e+00
      3.2054999207569135e+00 1.7481289732948480e+00
      -6.5694126813005593e-01 4.1540595761223242e+00
      7.6782485753659771e-02 7.4586650703709165e-02
      -2.7472604066971287e+00 -4.5622940400626366e-01
      -3.4995107728540535e+00 -3.7364865223447807e-01
      2.4345364803343061e+00 2.5243774213003736e+00
      9.1845705050106785e-01 -3.7299420385364437e+00
      1.0993497174495637e+00 2.0859152900520499e+00
      1.7120770526735505e+00 4.6841383655668372e+00
      -8.6392034810037621e-01 3.9393524411121321e+00
      4.5140082695401738e+00 2.4639096921339148e+00
      -6.6684961132159382e-01 1.7729715144362826e-01
      4.9698457285913877e-01 2.2838996076190203e+00
      -1.9163845454364896e+00 -1.1906211615149635e-01
      2.2165218036714882e+00 -2.3852675307070066e+00
      3.5595563086000950e+00 -7.4723449031904787e-01
      8.9401871482982664e-01 1.4724001080926443e+00
      2.6932448899068335e+00 -3.0527830962146889e+00
      1.4792627505154250e+00 5.2936697386198162e-02
      1.9077288116792424e+00 -1.0220073876685336e+00
      1.5735533677039963e+00 -2.9591066789471592e+00
      1.1338443462835348e+00 7.5229828972977486e-01
      4.0844513597866977e-01 2.3028454442215156e+00
      -1.0773342111347404e+00 -1.1843670464892757e+00
      -9.4863630916882402e-01 -1.9600366889258081e+00
      -6.6195262689808920e-01 -9.4088943878706877e-01
      -2.5862115524934626e+00 -1.5703043480244827e+00
      2.2492132779517029e-01 3.2416555269589642e+00
      1.0266048889136559e+00 2.1415300822372418e+00
      -2.7275590304573027e-01 5.1295223179247911e+00
      3.4497701353726672e-02 4.7353557324341496e-02
      -1.0962637453410593e+00 9.2098128227892395e-01
      -1.5166638224048614e+00 -4.4060497926403847e-01
      1.4564824381207180e+00 8.0590096309887538e-01
      -3.2588148062031088e+00 2.1306802295148661e+00
      3.5065863723418145e-01 -7.4887245948566961e-01
      1.4173965011661798e+00 -2.2032059086539157e+00
      -2.4735567122517423e+00 -2.0778698014925259e+00
      -1.3579462719715756e+00 1.1362888927620467e+00
      -3.3945415847500917e+00 2.0296917614043225e-01
      6.8978378896637282e-01 1.5295532660667099e+00
      2.7536470402874458e+00 1.6156491897947143e+00
      2.0036520004569818e+00 3.7980714575126346e+00
      4.3552220852721479e-01 -2.3713888242125836e+00
      1.6812977327941010e+00 -1.9105063816207735e-02
      -4.1931653569022675e-01 -1.9003796484588444e+00
      -1.7016815504927518e-01 -7.9220940861775146e-01
      -2.5444951602791455e+00 1.2196793058679383e+00
      -4.5314521308986788e-01 1.5382877042292071e+00
      -2.0626999994369166e+00 -2.5813779522831810e+00
      4.2541971599478039e+00 5.3361577497987200e-01
      -4.1164553549118210e-01 1.7327697637988873e+00
      2.6332841831583420e+00 3.1170270567916170e+00
      6.5803088242761176e-01 -1.5264885210109564e+00
      1.6996285190043328e+00 -2.4395990604005542e+00
      4.4611699556029871e-01 -5.3586869003949800e-01
      1.4425363433914749e+00 -1.5514171686569633e-01
      3.8395544672613802e-01 -2.5975106357350879e+00
      1.4972645132548037e+00 -1.1527717633333512e+00
      -4.0136717886061846e-01 -3.5069723605249209e-01
      1.6092171962970836e+00 -6.3246551570904574e-01
      1.3739226465276537e+00 5.6395784537590010e-01
      1.7334690701526370e+00 -2.9018006721290042e+00
      -4.7631972248065607e-01 -9.2945463379799353e-01
      3.0851979048629290e-02 -1.2355904709078962e+00
      2.5487759795968499e+00 -5.2022610038657913e-01
      3.1463401307235954e+00 3.5920147019882291e+00
      6.9839931031649838e-01 5.3176414860420285e-01
      -1.3124864618208609e-01 -1.0296464581941132e+00
      -2.4156259576540279e-01 -1.5504027806081526e+00
      6.0427124014008415e-01 -9.9157042471930790e-01
      -5.3611152910739179e-01 3.0347293390944047e-01
      4.3188077499844679e+00 -8.4785234463975734e-01
      1.8252097749905110e+00 -4.9976078518744471e-01
      1.5898380272685000e+00 1.2776281938200755e+00
      -8.4647713672294633e-01 -7.9078430403224365e-01
      1.0147119016645856e+00 -2.5153501482300262e+00
      -1.0744789400920227e-01 1.4423115553993917e+00
      6.1187967466025051e-01 4.1597895598285124e+00
      1.6394079294187476e+00 8.2241866793269514e-01
      -3.0658923022686929e-01 1.8901647057834965e+00
      -1.6242344363063486e+00 -1.2638092104645526e+00
      -2.3167449992278755e+00 -1.9666318527329585e+00
      3.7974221755957788e-01 -2.1267035430946892e+00
      -4.2313130174823987e+00 -1.8250255064601539e+00
      4.8531875675103819e+00 -2.6998125446236636e+00
      7.0958213287373517e-01 5.6184496348066060e-01
      1.7520383898908474e+00 -1.1415905607656929e+00
      -2.7496640305026823e+00 -2.2835769718154304e+00
      6.9972093246966116e-01 -3.4167909874284325e-01
      -1.1511126303539672e+00 -1.7784328196329668e+00
      4.7816472627353745e-01 -1.4578730381652534e+00
      5.9502379102241695e-02 1.1587236419449698e-01
      -8.6566392124285607e-01 1.3403498655818002e-01
      -1.6357797859620413e-01 -9.0062266832478000e-01
      -5.9396410116844556e-01 3.6792846581559879e-01
      -2.0849046140325269e+00 -1.9777377112904497e+00
      1.2904317386713162e+00 -2.9295334262360284e+00
      -2.8697722956927465e+00 1.6551592667361839e+00
      -1.6420301515900428e+00 1.3848086236057082e+00
      2.1766274650592585e+00 6.6724750668432775e-01
      -4.9757997772318179e+00 -1.6556339470116619e+00
      -1.0823608559872850e+00 -4.1668020898161284e+00
      4.2323348524692994e+00 1.4825727422743351e+00
      -1.2209001550765746e+00 -3.2384278705937160e+00
      2.2022257518612229e+00 4.4559318071180529e+00
      1.4855569090307601e+00 1.7995731841203597e+00
      -1.0452588754754923e+00 -1.1318910833713387e+00
      2.2315071489265081e+00 -3.1988728323449318e+00
      1.7579593167989887e-02 -2.4228357023305444e-01
      2.6838870162491211e+00 -9.2245409328946981e-01
      -2.2770097605880975e+00 8.6215743327747174e-02
      -2.3193836011340072e+00 2.0044373487715648e+00
      -1.4863254244680828e+00 -3.4432975731851112e+00
      6.9573536635833086e-02 -9.9401195225092567e-02
      -3.9154656571885784e+00 6.5060830328876429e-01
      1.9868055277225252e+00 -1.2761783212291704e+00
      -2.1040571790349185e+00 -2.4950708598878588e+00
      -3.4920177485184021e+00 6.5293193254398563e-01
      1.0301905755196559e+00 -1.3585468719585689e+00
      1.5951191474105650e+00 3.6081920654746169e-01
      -7.2685437446220857e-01 -3.6802453875301198e+00
      -2.2313827557019970e+00 -2.4114619197138372e+00
      -6.4520040297511527e-01 2.7672393175152590e+00
      -3.5981695214001369e-01 2.0223475977081320e-01
      4.8923926399545759e-01 4.1743961652904110e-01
      -4.1426969698141713e-01 -2.1890977744341628e-01
      -3.1496276221397745e+00 -1.6195187668660620e+00
      -1.5873025335161622e-01 -1.4765978828260500e+00
      -4.0042838939327243e+00 -5.7395337080725861e-01
      -4.5756172034749687e-01 -8.9613931674745606e-01
      -2.7958732815056675e+00 -1.6029946648023616e+00
      5.6764845435089351e+00 1.6951048235860111e+00
      9.9203856914555544e-01 1.2698481171627303e+00
      1.6156117001097823e+00 3.6694665989723596e+00
      -8.0126506946404330e-01 -2.1099286677903276e-01
      3.0830743094808963e+00 -1.2365947050566746e+00
      6.3264736791650833e-01 -7.2551373414574960e-01
      -3.8670981194397260e+00 5.4939499051847573e-01
      -2.2709054489994915e-01 1.4771311520288302e-01
      -1.8930779597715672e+00 1.1434532091027891e+00
      1.1848924799120844e+00 -2.8557984761040554e+00
      -3.5618385783400058e-01 -1.7059556734562575e+00
      4.1495725381323467e+00 2.4563127092586785e+00
      1.6480362766690043e-01 -1.1860814751265862e+00
      -1.9859003101317219e+00 -1.0582361389672126e+00
      4.1499949627527694e-01 1.7009084488689490e+00
      -1.7045040169861214e-01 -4.9977625196238966e+00
      -4.0672309996224765e-01 -2.8856588573580244e-01
      2.2291669757842725e-01 -2.3563323536892256e+00
      -3.8805032863090267e+00 1.4842909018883457e+00
      -4.3843813255685182e+00 -2.8833253798533975e-01
      3.0973980349114205e+00 2.3680207616170832e+00
      7.3364436230195718e-01 -9.1045709084118831e-01
      4.9082486474168791e-01 6.3416455750243390e+00
      1.3526977891302823e+00 -2.7891196359042242e-01
      2.5596547586823806e+00 3.7517493456231893e-01
      -1.7324120915204326e+00 4.9901029127718322e-01
      -1.5323966065421313e+00 -1.2873248821307315e+00
      9.0165588574983369e-01 3.5497676314367261e+00
      1.6861283776256357e+00 9.8157256808630156e-01
      4.3363098628003732e-01 -3.2692450868453882e-01
      1.1335273000170711e+00 -1.0749725900942133e+00
      1.3181014984253987e+00 6.2510120905091260e-01
      -2.0937182770783287e+00 -3.0949630416110980e+00
      -1.9450788496760854e+00 1.0338398357901855e+00
      6.7827666418006505e-01 2.3528975300265884e+00
      5.7432200717947102e-01 -1.2666304164323743e+00
      -3.8502243301829751e+00 -2.1791118396925229e+00
      -3.6933964290383131e-01 -2.4089044297472677e+00
      -2.5951067579372391e+00 -2.1531407444907678e+00
      -1.5870112270990950e+00 9.6959381997065885e-01
      -8.3895644559257621e-01 -5.4921689215557121e+00
      -1.3044265602766771e+00 4.4144820571325072e+00
      -1.0022059086530979e+00 -5.4286689622283901e-01
      -6.2047293522857041e+00 -3.3693159282510476e-01
      -6.8120311804397737e-01 -1.4574796760011268e+00
      5.4897536685555892e-01 1.0778711283210176e+00
      -9.5134180085720199e-01 1.3889087824453561e+00
      -2.9463370245965499e+00 -5.7216646380679670e+00
      -1.1002713692629451e+00 2.6849057802175906e+00
      -1.8469484364284967e+00 -8.0894644080508271e-01
      3.7050867544121684e+00 1.9593509175683457e-01
      3.3080178782268512e+00 1.5918194407433710e+00
      2.2787786486529607e-01 1.0454752392603945e+00
      -5.6430974106184051e+00 2.5327794930266663e+00
      -6.2743683389601967e+00 -1.9612490785024794e+00
      -1.8070113915330130e+00 7.2604965357696449e-02
      -5.5850271939156793e-01 -4.0949773418138289e+00
      9.7357725811374107e-01 -1.8832198714635573e+00
      -4.1321078700193361e+00 7.4669754532247890e-01
      2.6058623893935087e+00 1.3844245465249211e-01
      -1.1240286951332787e+00 -2.4153641005577331e+00
      -2.5903411211783167e+00 3.4945560880952620e-01
      -3.3920157660998616e+00 -1.2605332715948909e+00
      -4.4394565964018033e+00 5.8024907801391901e-01
      9.8550582922484997e-01 -1.0228796527085744e+00
      -5.4817400962147622e-01 1.7869265745939180e+00
      -1.4429892162028133e+00 -5.8060163850742164e-01
      5.9377871208171507e-01 -2.8845158355326310e+00
      6.5887527552953207e-01 -2.0879847717347779e+00
      -2.4378537586657281e+00 -9.1963568853512756e-01
      3.1805985158908583e+00 -1.7426677133551074e+00
      -1.9506031847027081e+00 -1.1077267897424671e-01
      -2.4724834829569358e+00 -2.4569670805056718e-01
      -3.8805704607319642e+00 7.6676308870746945e-01
      2.7647575389391439e+00 -1.1578254431589996e+00
      -2.0702969348056759e+00 -1.1682416168128940e+00
      -5.6381994764590937e-01 -3.0640170150377184e+00
      8.3091433854745278e-01 -4.2528094779044445e-01
      1.7136518054828023e+00 -3.3591909389872407e+00
      3.9569853723368111e+00 -5.3714409834380401e+00
      -5.6305418293655514e+00 -8.3445957899964851e-01
      4.0986694840987914e+00 -3.0752159990442300e+00
      -1.3763104959318329e+00 5.2012808021104306e-01
      7.3425857174472875e-01 8.7410218346440149e-01
      5.4711360011724230e-01 9.2985237899508555e-01
      -3.9314598560830745e+00 1.0407672339926832e+00
      3.0692000983221840e-01 -4.2655934132039519e+00
      -1.6401278364279184e+00 8.1459919892093824e-01
      8.3971476967382119e-01 6.2486084584921076e-01
      -2.1158050520270706e+00 -1.7873843676620129e+00
      5.6474950263598889e-01 1.8032361290230905e+00
      2.5494069473431502e-01 -6.1348553509363857e-01
      -1.7327946881126273e+00 -8.6960475821593863e-01
      -1.8743476413259956e+00 -2.7533984314420024e+00
      5.4033911429570529e-03 1.4156404600983868e-01
      1.3456480959899395e+00 -2.7111421636413415e+00
      -1.2646365233824650e+00 -1.7556793765696361e+00
      -1.0341558133577997e+00 -1.7233312176759208e+00
      5.5908335085546568e-01 1.8606556013565863e+00
      3.6621791898813063e+00 2.2553496586880231e+00
      -6.0880561917435150e-01 -2.8730961570606977e+00
      -5.0310698641755824e-01 1.4053055385406903e+00
      -9.2364437597450916e-02 -3.9128259999032255e-01
      4.7763738015280071e+00 -1.3308785314087013e+00
      -3.6492883362797026e+00 3.7148017732196925e-01
      -2.6973370423091598e+00 -1.8548572542190156e+00
      5.5549442508203173e-01 3.5293179780796726e+00
      -2.5529344491390193e+00 -1.0639726993189487e+00
      -1.5314485878276873e+00 2.1957719001806053e+00
      -2.1724793456816114e+00 -1.4974329083539604e+00
      -3.1833911046900858e+00 1.2431529360966789e+00
      8.6490632847022719e-01 3.5313765765399394e-02
      3.6734846050339237e-01 -3.0582596376957798e+00
      5.1173002325346051e-02 -2.7826213000214692e+00
      1.5220634594219542e+00 -7.3476816799273736e-01
      5.7049015918179391e-01 1.7197099630418775e+00
      -2.7872818882388968e+00 2.3154098982835114e+00
      1.6927146284952153e+00 -3.6710990556263767e+00
      -2.1224168949410882e+00 9.5019292257367505e-01
      1.3573970336051850e+00 4.4592317877031473e-01
      -1.4389507278295655e+00 -2.6124425150903510e+00
      3.1311623048279830e-01 1.7232594359716453e+00
      2.9955360901342054e+00 2.7538043238952259e+00
      1.9264777342061405e+00 -4.5466462802625984e-01
      -4.5662382743306189e+00 4.2337223412589875e-01
      -7.0345352475302581e-01 3.9380022748957284e+00
      4.0843841443351376e+00 4.8827962562911265e-01
      -7.6178842801918134e-01 3.1632470056323608e-01
      -3.4044708890571500e+00 -1.7803789033639122e-01
      2.1322259547014890e+00 -1.2453622963360371e+00
      -1.8090555261724048e+00 -1.0472517920106916e+00
      7.0427097781572678e-01 4.7379544114889454e+00
      9.0781537131033885e-01 5.5864910728858952e-01
      -2.1656088441935446e+00 3.4841432483128933e+00
      1.2241972090107887e+00 -3.5293464076657930e+00
      5.8677585763549800e-01 -1.6315630226196634e+00
      -4.6049277299703375e+00 -8.7763912680394107e-01
      -1.8036562770310576e+00 -1.5333412278566641e-01
      -5.5270530353681491e-01 4.1011990529843558e+00
      1.9338200856608341e+00 -2.4516398442498737e+00
      -2.0757690879616089e+00 -7.8563755877696695e-01
      6.3998584666953762e-01 8.5336466902270403e-01
      2.0180632709401877e-01 6.9537746883218776e-01
      1.2259298455102647e+00 2.6492092265636147e-01
      -4.3532677195692067e+00 1.6422553541363736e+00
      -2.5142252277456505e+00 6.2347106559134302e-01
      -5.1118807613272321e-01 2.4567924115415272e+00
      -2.6561713615394185e+00 2.3014549031770675e+00
      -8.3518076392757190e-01 1.4026057404205172e+00
      9.0179233824074348e-02 -2.5292108913769602e+00
      -1.8877722178219605e+00 2.4307735912211061e-02
      -7.4625550324339640e-01 -1.4971619238656340e+00
      -1.8517536750980350e+00 5.4292475533642148e-01
      3.2273426041452487e+00 2.8109351057624410e-01
      -5.2613709788316707e-03 -3.3415336085968050e+00
      6.7258468809901517e-01 -1.2422512618777988e+00
      -1.9587204352289134e+00 3.6145042500582365e+00
      1.8914750317254114e+00 -3.1920507390265507e+00
      2.7706922713767272e+00 -1.1327072390533167e-01
      4.8341583772182034e-01 3.7414245559322521e+00
      -4.6697306716582609e-01 -1.6179142919789562e+00
      1.2298951934499618e+00 -4.3647289645905821e-02
      1.0495929616490780e+00 2.7959114045052781e-02
      1.7338939515963281e+00 8.8617274070576901e-01
      -2.0502878377072760e+00 -2.2443627764259761e+00
      -2.6000833287118672e+00 -9.9979282621539878e-01
      -2.0806409407549000e+00 1.9445592935448874e-01
      -6.9901650175603203e-01 -3.8506892494397155e-01
      -3.0459235974848959e+00 -2.5276711514610901e+00
      -6.8094566044615301e-01 -8.4325962422141555e-03
      -3.8220374983962104e+00 2.7465737342205450e+00
      -1.3751216490479443e+00 3.5600544040553754e+00
      -2.2150554892099521e+00 4.0572792429062518e-02
      -2.4929012364310275e+00 -2.0306677669090063e+00
      2.0326544050748727e+00 -3.1257032161878993e+00
      -2.8298977791460334e-01 -6.8567522018766466e-02
      -9.3848792692531113e-01 -1.2096683643159671e+00
      1.5649358621096994e+00 -1.1157696234172296e+00
      -5.8511638213450201e-01 1.6459407752961139e+00
      -9.8999343551502006e-01 1.6626843624847036e+00
      -5.6289965383691087e-01 2.2997878657282147e+00
      1.1509943354300654e+00 -6.9951061591994423e-01
      2.3953056692991899e+00 1.8401000805734515e+00
      6.7275460302119128e-01 1.0440858714366340e-01
      1.1284666959114911e+00 -8.3526174738979253e-01
      1.2893171809489352e+00 -7.2448334103556056e-01
      -3.9056929662456336e-01 -1.0749902819194046e+00
      -4.4756152536887983e+00 -1.6864270614996759e+00
      1.2430690458909994e+00 4.3819559632389138e-01
      3.0652040135331133e+00 -1.0700680635654753e+00
      -3.8411433760766718e+00 -8.9447222618433520e-02
      1.6616445910909392e+00 -1.0683303834421296e+00
      -2.3470729723244355e+00 4.8521461426475776e-01
      -1.9240802786404974e+00 1.0122531713043563e+00
      -8.8572628133133391e-01 -1.1536683365443545e+00
      -1.6380393144014753e+00 -1.0725554838351472e+00
      -1.6070345422433530e+00 1.6120360778771794e+00
      -1.0881401702973679e+00 -9.0345574183147326e-01
      -5.8260955652673652e-01 5.3280893854004063e-01
      -4.0212514113811221e-01 3.5377033898884753e+00
      8.5805555594221938e-01 -2.5501600487022578e+00
      7.7434567267757359e-01 1.1751580069190473e+00
      -1.5066424423273523e+00 8.0195994829354145e-01
      -3.2397798839209648e+00 -5.7959364085863406e-02
      7.2989172289025717e-01 -1.6908210615493373e+00
      2.2388760468283122e+00 4.0703746389232354e-01
      -2.1147798538358047e+00 1.1729992834960048e+00
      3.1279525882397974e+00 -8.3075823644072622e-02
      -1.1838654745608190e+00 1.7695064492023849e-02
      1.4496378663813037e+00 -1.9040704955077323e+00
      -6.9444964548875360e-02 -1.7168095790260365e+00
      -9.1627415954960642e-02 -9.9087121698439840e-01
      2.7777915815166758e+00 -6.8702940077702956e-01
      -1.9133221852986924e+00 -1.2937649957010748e+00
      -4.8038599571240398e-01 3.6787738210848699e+00
      -1.2608812690580673e-01 -1.7970246481222957e-01
      -7.9765377593781195e-01 -2.6145495201272779e+00
      -7.8931051337448721e-01 1.6048067041118148e+00
      5.4427979622123646e-01 -4.0146862577869225e-01
      2.4408507657537175e+00 4.4203449576197551e+00
      2.0138263462966290e+00 3.2216725111701936e+00
      -3.8567226301067142e-01 -4.4728078225530208e+00
      2.6909326803381957e+00 -2.1953360136811506e+00
      6.4093164614177367e-01 1.1201754960300045e+00
      -1.1521850702935217e+00 2.4775011488414047e+00
      -2.4454664809588209e-01 1.2134639309038484e+00
      -7.6812020547229509e-01 -3.6985891424211546e+00
      -2.9807681055973614e+00 -1.7761555475029849e+00
      -1.4257393617088918e-01 -2.3442693752627459e+00
      -1.8976871099018482e+00 3.1616905427015460e+00
      -5.6197159681207820e-01 -5.5195440501353921e-01
      -6.1704000367441791e-01 -6.9477741351268341e-01
      1.0091809436100785e+00 4.1107447796391633e-01
      -1.5179308827470586e+00 -5.0108319395355849e+00
      1.2727409441898283e+00 -3.0124954429457468e-01
      -7.0433915327363572e-01 4.4230812762599481e+00
      -9.3754489275065156e-01 1.0723190218168430e+00
      -1.0445657850122922e+00 1.7675632368900934e-01
      3.4861392722103657e-01 1.3922479990990337e+00
      2.6482623401660685e+00 -1.2991403636287824e-01
      -2.6624913841732596e+00 -1.7380511302399226e+00
      2.0942466040908498e+00 -3.9675131179293195e+00
      3.9622998944386842e+00 -2.0043022280471985e+00
      -4.1677569213199925e+00 -1.2435669542657858e-01
      9.4187272386233745e-01 -4.5698994606561077e-01
      -1.7075874341223532e-01 -7.4998023599753605e-01
      2.3940630581112696e+00 -2.0439572877573746e+00
      1.2633926662687645e-01 1.4458955665091504e+00
      4.5590909992090839e-01 2.2992106752985446e+00
      -3.3408986408949342e+00 -2.1193799168617642e+00
      2.4059584393341362e+00 -2.1228928108822820e+00
      5.1830236739499980e-01 -7.0159363131182750e-01
      1.3834534028466416e-01 1.5981064617866125e+00
      -2.4787687141064922e+00 -3.4493706219890913e-01
      -2.9497070013789570e+00 -1.6968350731463482e+00
      -2.0075233371774281e+00 4.3286423545793404e+00
      1.9323094354612205e+00 1.4159236613696289e+00
      -1.5777411641880454e+00 1.7265252220794554e+00
      2.8363894280393760e+00 -1.8734898673725593e+00
      -1.8036672678034513e+00 -3.6160273653996398e+00
      1.8305249950633391e+00 -3.2516533395126017e+00
      -5.1887373271294113e-01 1.8208718750376054e+00
      3.2401769869999333e+00 1.3188514227854287e-01
      6.1786204007874024e-01 -1.4938109072671319e+00
      8.3567572857676076e-01 1.2870673529711079e+00
      -2.2523248096185413e+00 -1.3774498734793075e+00
      -2.1219250919775599e+00 -1.1760067415255628e+00
      -8.2612995797106870e-01 2.9234048725664419e+00
      3.9387240451494621e-01 1.8030512069480220e+00
      1.1602912247259285e+00 -1.0029027719135442e+00
      -2.0998425538325127e-01 -4.1654476757598780e-01
      2.3659398418352517e+00 -7.1029845970073668e-01
      -1.7145350607723457e+00 4.0371019975775342e+00
      -1.0075547016213977e+00 2.9610751767740178e+00
      -9.5494598038990930e-01 1.8637477683506516e+00
      1.3492594911176798e+00 -1.6090835180443464e+00
      9.1552625802973586e-01 2.7551485402867837e-01
      -9.8820474955408424e-02 -1.1520369061962781e+00
      1.1993216172014938e+00 -3.1895777835542853e+00
      -2.3359804116363541e+00 -1.1537457770494322e-01
      -1.3900209272101496e-01 -2.7890761407230935e-01
      -3.3371797142649449e+00 2.7555554328535886e-01
      2.8444629573059061e+00 -4.1071262718261503e-01
      2.4045619196737000e+00 3.8803571697478327e-02
      -8.6367666518719000e-01 -3.8496199164119144e-01
      -1.7777765968919079e+00 6.0633042790837477e-01
      2.0194254491798200e+00 8.1920857562206584e-01
      3.0400975243689845e+00 -2.1912319810383546e-01
      -1.3313479986688621e+00 -2.8824599027047310e-01
      2.1853403461352223e+00 1.8788888742527727e+00
      6.0227118704462357e-01 3.1216012881349191e+00
      2.1145577290182795e+00 -2.7126884514887890e+00
      3.9986783703072857e+00 1.5483596701089553e+00
      3.5473567250580902e+00 2.0283943167043508e+00
      -1.4698663155949390e+00 1.6654457304360404e+00
      6.4216263456305211e-01 -9.0521000330671664e-01
      1.7053860528144696e-01 2.8910214051129954e+00
      -3.0361593324404237e+00 -2.2115471995772245e+00
      -2.5547589970866463e-01 3.0438667587159618e-01
      4.6238163870934148e+00 -2.0892504865255503e+00
      -2.8366462688653904e+00 4.2302426687028001e-02
      1.2207577792462436e+00 -1.0345932115926950e+00
      -2.5058649293222979e-01 -6.9384813386694044e-01
      -2.8052828272287540e+00 2.1824905995700675e-01
      3.4182707702922027e-01 2.2300213406406475e+00
      2.7071885295499611e-02 4.4819995727772767e-02
      -3.5286277825244023e+00 -1.3047658202882531e+00
      -1.6270008634787660e+00 -1.2940221732182056e+00
      -5.0736726935732701e-01 -3.4077021302583504e-01
      1.4589590125930920e+00 -1.7581896813875011e-01
      -1.9577494926128216e+00 -1.9212684866875642e+00
      2.2175083869914267e-01 2.0326900560511199e-01
      8.3576636410225780e-01 4.3336379171174189e+00
      2.3686440422652351e+00 -2.6504033924495567e+00
      -2.5798562361483884e-01 2.0213807444544223e+00
      -1.9953573033779211e+00 -4.1285338783171960e-01
      -1.4803049361020872e+00 5.5585944933378506e-01
      -1.8813866998855528e+00 1.7555929763203829e-01
      -4.4432180757770556e+00 3.7721188060154637e-01
      -6.6584977880973617e-01 3.3444851027391059e-01
      -8.9577153832601975e-01 7.6873816650564675e-01
      -1.5951816831250691e+00 -5.5039857072550979e-01
      -1.2728951631267682e+00 -2.3881183700613202e+00
      -4.8420566697571559e+00 -5.2256131555566754e-01
      1.7493951297222934e+00 3.9423705873950804e-01
      2.6726651122193767e+00 -6.2240219394928997e-01
      2.3717020263962523e+00 -8.7892030448851144e-01
      -1.5589789867922481e+00 1.1956064895549716e+00
      1.0683681851042912e+00 9.2483330818530177e-02
      -1.8966212805488658e-01 -8.6108844747881608e-01
      -7.9268412914222552e-01 -4.7755423777822303e-01
      -7.1965918391491313e-01 7.3767054187301440e-01
      3.0788952187175993e+00 1.9225560279669425e+00
      1.6303846691777293e+00 4.2724868033685515e-01
      -2.6921322107084555e-01 3.5376799220789912e-01
      -2.6153210699295820e-01 -3.4361641134442253e+00
      -8.5689155808336215e-01 1.0558709124477346e+00
      6.7806311395835553e-02 2.0573799643827875e+00
      -3.2178051393675009e+00 9.7136591575996256e-01
      7.3393307150041343e-01 9.7865450728407366e-01
      7.0157388730873271e-01 1.7120137349947264e+00
      2.4874050435927525e-01 -1.9668471400404526e+00
      4.9312614495312550e+00 -1.8808777175455282e+00
      1.6766042095332823e+00 -6.9610350268234356e-01
      -8.6891084582364952e-01 -6.7845669037637113e-01
      2.4528572946524454e+00 3.6324588822211727e+00
      5.0931789129550014e+00 -2.6638971824916480e+00
      6.0219491137023484e-01 -3.6162836465039716e-01
      -3.1306261933013508e+00 -1.0062774906216503e+00
      -1.6093430111179580e-01 -8.0007239747409664e-01
      -7.2425691115547619e-01 -1.7315478267430331e+00
      -5.7107608669979548e+00 5.6395027629953658e+00
      4.8831935892971645e-01 -2.3985423950460744e-01
      8.8545971615169328e-01 8.4777595346147527e-01
      5.1084544968885093e-01 1.0275055442464003e+00
      2.2607040933819511e+00 -4.7368762227132061e-01
      -4.5813130003655861e-01 -3.2848058922631779e-01
      3.2702322382187760e-01 1.9891783200546103e+00
      2.3658347454270241e+00 -2.2674823141249547e+00
      5.7700803218985430e-01 -6.7230824259679389e-01
      1.0351273742108640e+00 1.9624709522453114e+00
      2.5489859447941088e+00 1.1237181630574020e+00
      -1.9680566986806034e+00 -2.2698690660722050e+00
      -2.2085718151401648e-01 5.0115935792552202e-01
      -1.2789742087704314e+00 -8.7386314193203085e-01
      -3.9972728476615038e-02 -9.5018127389576212e-01
      3.0000167563216562e-01 -3.3626576171650635e+00
      9.9413019801684677e-01 -1.5992015737498706e+00
      -1.8744529252474325e+00 -1.5523064505423585e+00
      3.3489307402863462e+00 -9.3741187818814053e-01
      8.4064462536155116e-01 2.2423209888078541e+00
      -2.5374436785420698e+00 9.3965489101790789e-01
      2.0590838367130075e+00 -1.3698779510650008e+00
      -8.9038695597204198e-01 2.3804325330662124e+00
      5.7801860925234316e-01 2.9897777367587386e+00
      1.8406826026572021e+00 -1.8846154265739006e+00
      1.0004438027873082e-01 5.6849028605712844e-02
      2.8238075178711872e+00 1.3122051207346876e+00
      1.3050207028403278e+00 -1.2582890690946000e+00
      1.9152936713261814e+00 -1.0119849138455455e+00
      9.6406346441886781e-01 2.1156951267624926e+00
      2.4345151215436567e+00 1.7331430465692079e+00
      -2.6584753086385184e+00 5.8218781897877059e-01
      3.2306690944293354e-01 5.2126044259914039e-01
      -1.3033476124625114e+00 1.3771582324691278e+00
      -1.4885825204439082e-01 -2.9158642155316566e-01
      4.5886589937649484e-02 1.4920804397551568e+00
      4.3590390748922188e+00 -2.8599477159337150e-01
      -1.9687243649982635e+00 4.7060012464600232e-01
      3.5137938537161956e-01 1.2174101753065829e+00
      6.6393686108332484e-01 -7.6351465242234240e-01
      -5.8325213986729674e-01 -2.0112173416714745e+00
      1.9330808236401736e-01 -1.8211769470681663e-01
      2.1177381490772520e+00 -3.1720092295103119e-01
      2.7115433234483657e+00 -1.7970822075379418e+00
      4.6016734260059933e-01 1.3606018569298117e-01
      -5.1596283012787989e+00 3.8617746838982647e-01
      8.4278920037412997e-02 -2.1826155962753422e+00
      2.4860817640653039e+00 -1.5435212742229700e+00
      -1.7339692416267319e-01 1.2107615681589086e+00
      -4.0857268605582614e-01 1.5467347639187805e+00
      1.3289036261035261e+00 7.9994766037638332e-01
      3.3559523779228018e+00 1.6397406147752405e-01
      -1.5280326680930061e+00 1.0717874558226534e-01
      -1.4034299808789379e+00 -1.0946942991265214e+00
      1.6059898679404980e-01 2.3432259067383314e+00
      -5.2375086631792189e-01 9.1697072376757494e-01
      7.9248713377497393e-01 -8.1843976909243088e-01
      -1.1229205041030028e+00 -8.4221424100792552e-01
      -1.6747467159976948e+00 1.4087146271987916e-01
      9.8175812389311667e-01 -1.6964697882379070e+00
      2.1152995275899897e+00 -1.8665327845104125e+00
      -3.4826766804923133e+00 -2.8432799449824233e+00
      5.8730568378659953e-01 -3.9724697844375817e-01
      1.0394690251112275e-02 -9.2356618982735550e-01
      2.9759115010120320e-02 1.9665468573715019e+00
      -2.5710802349173654e+00 8.6850979205801548e-01
      -2.8559130139924491e+00 -3.6885981020267627e-01
      -7.2775784887164485e-01 -8.4218562599531854e-01
      -2.4801470825023757e+00 -9.1908618602211944e-02
      -4.1356690383035397e-02 1.3128764357690651e-03
      -3.3325766075734520e+00 -2.2967846609015016e-02
      -7.0010477533528703e-01 -8.3115957599174384e-01
      1.8808315755041887e+00 3.6753224339741164e-01
      2.7131121090239954e+00 6.6410128942836921e-01
      2.6070968712039484e+00 3.7198881990484436e+00
      -2.4282725907663307e+00 -4.9420491250748549e-01
      -3.4936273035185050e+00 -2.4752646125021043e+00
      3.6326438225795898e-01 2.6138026784550927e+00
      -2.8725455836770033e+00 -4.9077203340782765e+00
      -1.9512761760643647e+00 -1.6858034078398794e+00
      9.1633866330507308e-01 -4.6095519121794243e-01
      -1.3790542035085553e+00 4.1943446631123349e+00
      -4.5126812378136993e-01 -1.0553780774990171e+00
      1.5543026003502440e+00 1.3088558169945168e+00
      1.7079903092142409e-01 -2.6623051645845924e-01
      -6.3270469273334584e-01 2.1516293701532756e-03
      2.6425680981592774e+00 5.0076662509334857e-01
      -9.4170417761477621e-01 8.4763780324198001e-01
      3.0303949416498993e-01 4.5063025010170343e-01
      -1.0091601944220894e+00 -2.4445416189483105e-01
      9.7774259652776574e-01 -2.9547727492238685e+00
      -1.8701432898075904e-01 -1.2838396112497537e+00
      -3.5133835210907312e+00 7.1452449858122646e-01
      2.3160540051201748e+00 -5.4346685589378896e-01
      3.5368420003081309e+00 2.7244340658797443e+00
      -2.0961011962313009e-01 -1.1223900095026564e+00
      6.0702918158831931e-01 -6.6377169183172102e-02
      -2.0000946993147206e+00 4.4788779907447851e-01
      -1.5823756878986468e+00 -1.2858515594761695e+00
      -1.4423449617434709e+00 -7.2986805745090588e-01
      2.1129542707109885e+00 -6.6506960576578877e-01
      1.1745094285493829e+00 1.7880630317702755e+00
      -3.5968682108220293e+00 1.5251057814909816e+00
      4.1781750939962556e+00 1.0383356824793872e+00
      1.6678866597502071e-01 7.5862990932165975e-01
      -3.3197497022587569e-01 2.0353173374685070e+00
      -9.5931351096505124e-01 4.3206463792345112e-01
      -1.5887426486064173e+00 4.8660559817049469e+00
      -2.3193373447512795e+00 1.2216555764708166e+00
      5.4115225067202444e-01 -8.2876618109950961e-01
      1.1714982819421766e+00 7.3822479455870671e-01
      -1.1926391416455848e+00 -1.6828806333015431e+00
      2.5508603627702118e+00 -2.1295604771659500e+00
      8.8989587634206668e-01 -1.3764755157055686e+00
      1.2150197073571793e+00 1.1437701823291528e+00
      7.1440371338324427e-01 2.7246533633970729e+00
      1.9939782652318763e+00 1.9056266483401516e-02
      -1.8794420513427721e+00 2.2572156481853636e+00
      -1.0215309608454550e+00 4.2500678965016219e+00
      -3.0835378683393871e-01 2.3283382868911229e+00
      3.7283111171038672e+00 -4.2807703477203571e-02
      2.5640536521101329e+00 -1.9049628706350590e+00
      -1.8656299506787868e+00 8.8964531374655031e-01
      -2.7837849258547562e+00 -8.6867332530422769e-01
      3.6555364161800652e-01 1.1841462663601732e+00
      1.3564621343239265e+00 3.5503866890006536e-01
      1.0199615415261885e+00 1.5888132351726265e+00
      3.4772658093966269e-01 -2.7392070939137492e+00
      2.4430412742149177e-01 -3.5068527266887167e-01
      2.8988115940319017e+00 -1.4297018546674352e+00
      -4.0915486077400237e-01 4.2226847005188821e+00
      -9.6450300071265616e-01 -1.2830783059214970e+00
      1.5990921930212612e-01 -1.5255972009601397e+00
      -9.0078496852649392e-01 3.5331801386006223e+00
      1.3374531928381643e+00 9.6505414821889915e-02
      9.1735690762855204e-01 1.4458900890999757e+00
      -1.0916110936153165e+00 1.5270878505064709e+00
      -1.3743125802053169e+00 3.2563176713868436e-01
      9.7511316157591765e-01 3.8602149442006644e+00
      2.3398510853970924e+00 2.4075257737355233e+00
      -1.8503212438006960e+00 -4.2050807456569883e-01
      3.9951062270927384e-01 -1.3998239182359586e+00
      -3.5086665443422793e-01 -3.9543804278952845e+00
      -4.8360267846477516e+00 6.6549256902502030e-01
      6.5823591317413876e-01 2.4256395981878267e+00
      8.0809844757692018e-01 3.2977019134248722e+00
      1.3432867579506047e+00 -4.4495974182808675e+00
      -4.0511327974963496e-01 -1.9221219313656555e+00
      -9.6901378036254826e-01 -2.1595860991062046e+00
      -1.8279928866341271e+00 -1.4268596090067505e+00
      1.1537382977308859e+00 1.6873423417874817e-01
      8.3887675754836699e-01 -1.8242437370653906e+00
      -4.0060872007438384e+00 -6.1847022111784755e-01
      1.5395169229240262e+00 1.5295172746557844e+00
      2.6011881413955839e-02 3.7831271077523718e+00
      1.7521189039637315e+00 -4.3998395273856206e+00
      -2.1478794247016122e+00 7.1718376226417113e-01
      1.2056271552073359e+00 -9.9851074150436936e-01
      9.6990934110794014e-01 1.3675799844613716e+00
      1.4437210012733606e+00 1.2802521990232358e+00
      -2.9617309402238534e-01 -2.4098002864745635e-01
      3.1786913838782810e-01 -4.1233033242260451e+00
      -1.0520534775002688e+00 -3.5580676910826297e+00
      1.9420467499644043e+00 2.1402368715956691e-01
      2.3081104012710369e+00 2.5375077626174325e-01
      2.4551236518316610e+00 -1.9046601688309006e+00
      -1.5037204754667552e+00 5.6362085324260514e-01
      1.4389834550199185e+00 -2.9684516206622629e+00
      -1.1637968352237434e-01 1.6530753269825900e+00
      -8.5884876545668276e-01 9.7760095213232334e-01
      -1.3666258754586516e+00 2.0696522739421721e+00
      2.5071753331763214e+00 1.2586387905397454e+00
      1.3230108740530400e+00 3.5160625012133379e-01
      -1.8526415160475659e-01 4.7598543259589017e-02
      -2.9494530133990184e+00 -1.2298912864665539e+00
      -1.5752960459789784e+00 8.7358344677685396e-01
      -3.2756951111936972e+00 1.7223121474994141e+00
      -1.8319587720397552e+00 -5.8973845836865643e-02
      1.3287741614522179e+00 1.1140328323597546e+00
      -6.9389188074238284e-01 6.4427458596257647e+00
      1.8772674564645206e+00 -1.5030248344548722e+00
      3.2028575577290095e+00 -8.4852378302734988e-01
      1.4044361951070645e+00 -2.5428824789519258e+00
      -1.3404659398638172e+00 6.1180685616557939e-01
      1.0645600617645883e+00 1.2373722061392565e+00
      3.7423604227065659e+00 5.7551242070871500e-01
      1.4664508837690309e+00 5.6002840715194715e+00
      -9.4471312059306323e-01 2.3558433318902985e+00
      4.9625254444282305e+00 3.0660304710863850e+00
      2.3525581591484355e+00 -4.3562267825895001e-01
      -1.2427823891501169e+00 2.8621586125227472e+00
      -1.0155861095058545e-01 -1.9823125667586230e+00
      2.6713972936681962e-01 3.4585087805082287e-01
      2.1945950029313907e-01 6.6015912355758044e-01
      4.1717291002754547e-01 -1.3006145197062002e+00
      1.9473911629927072e+00 3.0071501501357019e+00
      -1.9095509341086345e+00 9.0546770898719608e-01
      -1.4213961749731108e+00 -4.2109937698261668e-01
      -3.8605031667019191e-01 1.0672226588943823e+00
      -5.5294985401638996e-01 1.6224078769041341e+00
      -6.6173300952990999e-01 -3.9327574652495314e+00
      1.4145868588985575e+00 -2.9781812122714357e+00
      3.6299492139593748e-01 1.9644145070793113e+00
      -9.5212748614364262e-01 1.3426251361704302e+00
      -4.0733510612676280e+00 -1.4890753964543570e+00
      2.0346477216160168e+00 1.7771236398367196e+00
      -8.3063320332274915e-01 -4.0170496247873810e-01
      8.4776925576817286e-01 1.9078531550480785e-01
      -5.5890972379352799e-01 1.7173156010569077e+00
      2.5333057509171963e+00 -1.4086934233298634e-01
      -1.9110782333722964e+00 -1.6022902365019089e+00
      3.3457694977853281e-01 1.3085769136969096e+00
      -1.2483698124566762e+00 -2.5093533061196482e-01
      -8.7075619018998873e-01 -2.0110676398308582e+00
      -2.9847268073975584e+00 -8.4927123798021531e-01
      3.9857261633919236e+00 2.5305586959178039e+00
      1.0980119770223189e-01 -8.3020790729395999e-01
      4.0658867024644820e+00 -5.6483952889750333e-01
      -1.6767283523625103e+00 3.0431143845431952e-01
      -3.6342374826527633e+00 4.8213038255156071e-01
      -8.6454084780905855e+00 3.5046388726613986e+00
      1.1627830402603747e+00 -2.6538116826354354e+00
      9.7948375830747259e-01 3.2076456783603424e+00
      9.6440950570578410e-01 8.4582098885012225e-01
      -3.6821590617134432e+00 -2.5357889653582535e+00
      5.6020339777966317e+00 -3.1304049221885659e+00
      1.7243640098823652e+00 6.3934956818151567e-01
      -1.6854489789055718e-01 7.1027733160435380e-01
      4.0100309569560433e-01 2.2624819217773808e+00
      -1.1328473103853527e+00 1.9687219761343533e+00
      -1.2869462775877989e+00 -1.6310666953645938e+00
      -1.3536693525141676e+00 1.0065341420943192e+00
      1.2616683743182331e+00 -8.9706282173666962e-01
      9.8244383824078063e-01 -4.2509701251981156e+00
      5.2334686133084385e-01 -1.0671607722297940e+00
      2.0949374734896771e+00 -2.5718362998206246e-01
      -8.8037856768639400e-01 3.2642384880360337e-01
      3.9567163329171935e+00 -9.0423144140506584e-01
      2.0719604177993495e-01 -1.3922784387434215e+00
      -3.2195327083175940e-01 1.1959775104044668e+00
      -3.6835434538834053e+00 2.9858671714990384e+00
      -9.3766944035103872e-01 2.3944335553182034e-03
      1.3122755549522365e+00 1.9571254908871463e-01
      1.6985818171073901e+00 2.7991219401208850e-01
      -1.1433624400749283e+00 -2.5678973490587631e-01
      9.7210059211186561e-01 1.0281018926656624e+00
      2.5828519823936094e+00 -7.7505501920758879e-01
      1.6041523233322346e+00 -1.0197116611902475e+00
      5.0362076047630627e-02 1.7523065175882311e+00
      2.9799054551242219e+00 3.5918705358048869e-01
      -1.7099846226426230e+00 1.3727256152639222e+00
      -4.0819940658586971e+00 -5.5345957244288524e-01
      -1.8007518414016817e+00 4.3153115284003223e-02
      -3.2812843682885493e+00 8.4396918558539757e-01
      3.7751106900212877e-01 1.5854669533631984e+00
      -3.4545068045013383e+00 -7.0124249379779824e-01
      -2.2719056611048427e+00 2.2347912405664716e+00
      8.1721343744200681e-01 -5.7318643554480934e-03
      1.9724425942854179e-01 3.2353674023585105e-01
      1.7581100266485730e+00 1.2722854447759095e+00
      3.0849771409536292e-01 7.2588279980857162e-01
      3.6298988875705387e+00 -3.8569892113409039e-03
      7.2576622310086825e-01 2.2224208002186949e+00
      2.2563701879057843e+00 9.4532150990567265e-01
      1.0493259227778333e+00 5.3713267949409305e-01
      -4.8180632118217026e-01 1.5072591926314560e+00
      -1.5963744582879018e+00 1.7976784509659123e+00
      -1.5197870694786138e+00 2.5579961636957131e+00
      3.3859268457483096e+00 -4.1867590297002677e-01
      -5.2745266661007051e+00 6.0608168982054023e-01
      6.6504231743920583e-01 3.0016228793462918e-01
      -2.2440192469894140e+00 -2.3156606413491772e+00
      8.6501210555309953e+00 -4.4996800230584383e-01
      1.9938598205982286e-01 -3.3735891430735756e+00
      -1.1980393710216461e-02 -4.2682396778885101e+00
      -2.4474510795059228e+00 1.7641438968782905e+00
      -2.5360843811733367e+00 -2.9484543800469304e-01
      1.7330467115706454e+00 -2.2414707664227176e-01
      1.2644324520977177e+00 2.1465739031302555e+00
      2.0729117794645644e+00 1.4896708981006572e+00
      -5.9694748271325238e-01 2.8649861649013260e+00
      -3.4103959807945100e-01 4.8054022141789604e-01
      -5.7058699257000463e+00 -3.6631800066432918e+00
      -5.5359282759429873e-01 -2.3489297982999149e-01
      -3.3857921574002110e+00 -3.4369288843063139e+00
      -1.6145305791012194e+00 -1.6547320068132154e-01
      -1.4766834872754453e+00 2.8184197092678329e+00
      -1.2717231214785327e+00 4.1395225226048549e-01
      -1.2729943251525691e+00 -1.1696075761226390e+00
      5.8819832640294079e-01 -4.2366051350269612e-01
      2.2813643825328307e+00 4.8945699291258760e-01
      -1.0530235890345432e+00 1.5685302342326994e+00
      -1.4188332460902364e+00 1.2677672185111422e+00
      -2.5407760996105661e-01 3.2189045245619505e+00
      2.4074164326751968e-02 3.6885298238383046e-01
      1.2634531260420532e+00 1.7059405533286898e+00
      -2.7109926178867227e+00 -1.5609537984254347e+00
      1.7835973291164919e+00 1.0310550385320068e+00
      3.6782213853096843e+00 -3.8399443953142147e-02
      -4.8666399745091787e-01 -3.7890340335848900e+00
      2.3503463635964299e+00 2.2581540035952195e+00
      1.5946164383694650e+00 -2.7461817956290511e+00
      -1.7649260409178162e+00 -2.6826672211645231e+00
      -6.1221805011676123e-01 -4.3785335117954114e+00
      -2.6501102990130434e+00 6.2995465240126711e-02
      2.4116682152434517e+00 2.5951524973380680e-01
      3.0720295366027468e+00 -6.9879138658169559e-01
      2.5278432314391237e+00 -3.0946241752021209e+00
      -2.0817244176800691e+00 -4.5997390850012945e+00
      1.5316440771399356e+00 -2.0737614978138010e+00
      4.3170508229125826e+00 -7.0088674834912457e-01
      6.3135373287317909e-01 -1.3845876760241844e+00
      -1.1018068567547921e+00 1.0700471456423266e+00
      6.1759263715853252e-01 -6.9300649411207962e-02
      -1.4430210924649223e+00 -3.7950611291976943e+00
      4.1764685311585268e+00 -1.5632424796841613e+00
      -1.8303990538129162e+00 4.6579803318382956e-01
      2.3938327905557371e+00 5.9229238830049880e-02
      -1.4122194117274405e+00 -2.1609703037139347e+00
      3.8447598962289318e+00 -3.4720237213672775e+00
      -1.5289446242084748e+00 1.7932593326839403e+00
      -1.0937434952251230e+00 -2.9931747496858263e-01
      -4.7289758323131785e+00 2.4265725530364528e+00
      -1.5301668514692729e-01 -1.9495595189975961e+00
      -9.1627939499957645e-01 -1.0670757751726057e+00
      -1.1771636053370409e+00 4.3615250792692467e-01
      1.5167586640935213e+00 -3.3373537559216802e+00
      1.9473766627953506e+00 -2.3291237089763563e+00
      -1.9808981061097519e+00 -1.2624856694260962e+00
      -1.9943157902410358e+00 1.4830145482385344e+00
      3.6726203467809189e+00 2.1350209242701688e+00
      3.9915127217093924e+00 1.1519108256182256e+00
      2.9098514340071420e+00 5.3220023561485041e-01
      2.2727294685622361e+00 -9.7030647156372674e-01
      -1.6629910741561633e+00 -2.5155896321784486e+00
      -2.5219879457374583e+00 -1.3956412976089305e+00
      -4.2295274434556971e+00 2.7521526540238557e+00
      1.7167933733826318e-01 -2.7539298380372772e+00
      3.4579454035191115e+00 9.2028996664520557e-01
      -1.4622601510258344e+00 -1.8833519897373519e+00
      1.5652629006083361e+00 1.4169352103025146e+00
      -3.7720098053202675e+00 1.5687435781835748e+00
      -7.0462317018787761e+00 2.2323322829585170e+00
      3.5359985827670268e+00 -4.4228156854879899e+00
      3.9177831632105105e+00 -3.8835628727060247e+00
      -1.2049117057453500e+00 -2.4596402981914481e-01
      -1.9223899879269681e+00 -1.3901525931537715e+00
      2.0402634682948912e+00 -1.6294023585982956e-01
      -2.5076017921997571e+00 -2.3089343089138188e+00
      2.9172998391443095e+00 3.2889226186245550e+00
      -4.1222637656061538e+00 -3.7952861559860024e-01
      1.4125769355323183e+00 6.8939043930951955e+00
      6.8481860419142402e+00 -4.5901290437561104e-01
      2.9807656460996665e+00 -9.8631869355208568e-01
      -5.3962148593619230e-01 -4.3706899676744149e+00
      -2.2680046658975321e+00 2.8761698339360731e-01
      2.2430686055855627e-02 7.1866552508268651e+00
      4.6427560929161622e+00 -4.8836266534650991e-01
      3.9821717790851872e+00 -4.2889275336154951e+00
      1.8988366797727270e+00 1.5203329513720936e+00
      -1.7691464760334656e+00 -4.1382317840331906e+00
      -3.9798151968252986e+00 -2.3326062967984851e+00
      -3.2800357043459987e+00 8.2404750442212793e-01
      1.8304950528047810e+00 -5.1939543554681027e+00
      -2.0852337926625424e+00 6.1700213031566375e-01
      2.9957783843756935e+00 -2.7834949796221409e-01
      -4.8071433425209262e+00 -2.4998068377219811e+00
      2.0662504006266209e+00 6.3541448586308942e+00
      -8.6339331489544902e-01 3.8980819975665977e+00
      4.0922748340206372e+00 -3.7761061863738439e+00
      -1.8588066144198567e+00 -2.2783801102403829e+00
      -4.4946378625265586e+00 6.3363841374121357e+00
      -1.4214315878394668e+00 -5.1630947043217890e-01
      -3.0902941673155206e+00 -5.7781840886394109e-01
      1.4250378364764751e-02 5.6974786981669456e-01
      4.1037464655997695e+00 -3.3197338698051841e+00
      8.0104444243080219e-01 -1.8944608619383010e+00
      5.2697248998756683e+00 -5.5952395312583358e-01
      2.9228399506369107e+00 -2.7221074977400019e+00
      4.1256505356564341e+00 2.0495585815341468e+00
      1.0229664492222930e-01 -4.6807931658675006e+00
      4.2699761361766333e+00 -2.0769302830799017e+00
      5.1202288835292586e+00 2.6504497989926756e+00
      -7.5189323077023218e+00 -4.6918601536504161e+00
      -3.1080200105705615e+00 6.1845654015815397e+00
      2.3942708938825188e+00 3.4283738642629098e+00
      -5.0268200110911598e+00 -4.4908330907070404e+00
      4.2384562846560483e+00 6.6584959584478776e-01
      -8.6957760924973893e-01 -3.6895716772504619e+00
      -1.5574552127309100e+00 -2.8260862228547290e+00
      2.9489814070273295e+00 -3.6044063645144968e+00
      -8.2184488208063691e-02 -4.5563491212270959e+00
      3.4640543064707590e+00 -1.0373724215841968e+00
      -2.6895069013609585e+00 3.5622369835279692e+00
      -3.2187036614191853e+00 1.0508157216117747e-01
      -1.9356572555811844e+00 -3.6540121464837636e+00
      1.5603403901412052e+00 -3.6305194648249968e+00
      7.6313051482800400e+00 1.9780652293390126e+00
      2.0076118520586315e+00 -3.1974115069331592e+00
      5.6810311063667571e+00 -4.3485963200119243e-01
      -1.8711641113549753e+00 1.7651976529073216e-01
      1.3619850373744880e+00 -2.3278384243657024e+00
      -1.6111804105121644e-01 -1.1789946686152186e+00
      -1.8861737571016539e+00 2.4432158113328399e+00
      -6.3094696406234230e-01 3.4770498508072434e+00
      2.6652990754893473e+00 1.1066343412331430e+00
      -3.0332558005823462e+00 1.1540906728755822e+00
      3.9071110359178820e+00 -3.9767675960605873e+00
      1.4348972145604975e+00 -4.9594188858760804e+00
      -2.2176358276226367e+00 -3.5637075076034321e+00
      -5.5794014227875550e+00 -2.0898343457720188e+00
      -1.5565091530436546e+00 -3.4441908507284835e+00
      2.1489366573369595e+00 5.4686477008138079e-01
      -4.5818378709704914e+00 -1.4871219403072813e+00
      -2.0089362128246901e+00 2.4333933003881977e-01
      -5.2298465865217656e+00 3.7911989574414795e-01
      -2.2445536766166883e+00 -2.1611380359324843e+00
      4.1540288197862720e+00 2.0545503100084144e+00
      -1.1468745045479281e+00 3.4660011230666674e+00
      2.0640009487356408e+00 -3.5789688478525328e+00
      -6.0660662066412896e-01 4.8225844781933871e+00
      -2.9979081292150661e-01 -5.6031052123298419e-01
      7.8276017502321416e-01 -1.5159055066333691e+00
      -2.5958038628693334e+00 3.4807852051575212e+00
      -1.4442677134497883e+00 2.5877275636840436e+00
      2.1343407477765712e+00 -2.9186825072446481e+00
      2.8089580355066873e-01 1.1686922976782266e+00
      -9.2878146268494000e-01 1.3021320001521151e+00
      -1.3912097456177137e+00 -2.0769251118262448e+00
      2.4349418430907792e+00 1.8172707263146763e+00
      1.2357167696872453e+00 -2.8067093585928786e+00
      1.1483388778593293e-01 -1.7195595621521358e+00
      3.6969818712569551e+00 1.0259458434511850e+00
      -9.3214862563985379e-01 1.3156459256418991e+00
      -1.0009312509510406e+00 -2.5726266505449014e-01
      -2.8663112057089424e-01 -1.1449289801193832e+00
      -7.9933577518194299e-02 1.0355858174052583e+00
      1.5967671849993148e+00 -2.1268103237368909e+00
      2.3961874173883185e-01 -2.3227970156242900e-01
      1.8047236419709607e+00 1.9757255810248542e+00
      -1.4303215963571956e+00 -3.0158252215005421e-01
      -1.4433580714691097e+00 -8.7923047052150682e-01
      -1.7384272648082750e+00 1.0966610236575720e+00
      1.3620686420486952e-01 -1.5341436353650517e-01
      2.6055449779378255e+00 -7.1705139072794771e-02
      5.0995155694926035e+00 5.7945535125547754e-01
      2.1062984242547818e+00 1.3147405780386279e+00
      -1.8296694243594913e+00 3.3213876925330190e+00
      1.7620357427605311e+00 1.4739343272855774e+00
      -1.0591002629345072e+00 -1.2567938348811847e+00
      -4.2543552946769347e+00 -5.7728960223658055e-01
      -1.8031249628771524e+00 4.7472154906246006e-01
      2.1295056224361915e+00 2.5801872718742436e+00
      -2.4136581107802885e-01 -4.4184297134117489e+00
      1.5167207447930315e+00 -7.3300916411398054e-01
      4.8253900012287099e-01 1.4093300309748138e+00
      -4.5746283992272686e-02 -3.0950261133280049e-01
      2.4224053976535118e+00 8.1019991123518287e-01
      -2.8878239861807802e+00 7.9928502261266798e-01
      1.0542670105907366e+00 -3.8006768468261232e+00
      -1.2207794439594071e+00 3.5383653764705061e+00
      -5.2146124959102247e+00 4.3366434916749264e-01
      4.6617742685870800e+00 -1.2871266248133478e-01
      -1.6884737330333002e-01 1.6449454118072731e+00
      6.9329127706732663e-01 3.0056595930054217e+00
      -1.5702687019988224e+00 6.7945659109178957e-01
      -5.8017269189098075e-01 1.7714151770129758e+00
      -1.9542468792426487e-01 -8.2354752776207141e-01
      1.2048661645130345e+00 -5.4576533770912483e-01
      -3.1266277927810688e+00 -8.4430786382905376e-01
      -6.6639069529010431e-01 1.1238249374175142e+00
      9.7310903677598282e-01 4.2121950344265530e-01
      2.0578367021019779e+00 1.2545091315697397e-02
      6.6720451200708453e-01 -2.3416853566605353e+00
      -1.7633380947596653e+00 2.6414088391017171e-01
      -5.5859403265183205e-01 -2.0499759283340119e-01
      -1.3445209930185771e+00 -8.0841140143930568e-01
      3.1451874406757603e+00 -3.8227239114966594e-01
      -4.0563445777565377e-01 2.9315127721334515e+00
      -5.8317334534171317e-01 -2.0199800872346876e-02
      3.7331279925083387e+00 3.9743350748013997e+00
      1.5915914118125356e+00 1.4441598544275174e+00
      -2.6319150409479528e+00 -3.4894759083544613e-01
      -2.1831865741489316e+00 3.6444951411056654e+00
      -4.1522334804641314e+00 4.4696223321744860e-01
      2.9095987277223273e-01 5.6503862471039701e-01
      2.0454793501685861e-01 -1.4604833145533471e+00
      -8.3512662666447612e-01 2.7485240646922158e+00
      -1.4726645686024140e+00 -1.5105834691463791e+00
      1.2030068431151260e+00 -3.4673901333910667e-01
      -2.5874766431977118e-02 -9.1933010222847833e-01
      -6.9728181969506087e-01 -6.1565236823918090e-01
      3.1240057654613557e-01 -2.7633549222897863e-01
      3.5449366293031903e+00 -9.2575435669518154e-03
      1.1801064299843385e+00 -2.7458764794982935e+00
      4.1301976647886587e+00 -7.3977681573910326e-01
      -3.9467396193065474e+00 -1.2199285693746698e+00
      2.7237315724003870e+00 1.4771332730668056e+00
      -1.2937661815857366e+00 -1.9046633898331968e+00
      7.0079665544908565e-01 -1.2442248597026724e+00
      6.6032112429909349e+00 3.7521475060766214e+00
      8.3575815095313821e-01 2.5913811574438426e+00
      -2.4621053793595769e+00 9.1690293348211860e-01
      -2.0438371121984131e+00 -1.6879894813723348e+00
      -3.9850975860602742e+00 5.8673012284076320e-01
      -2.6869060250139998e+00 6.5901037939511153e-01
      1.5023265461132196e+00 -4.3666050030639836e+00
      -1.4579636907501947e+00 -1.5144452852765253e+00
      1.3166409570739668e+00 -3.0898594709078169e+00
      2.6388306369602597e+00 -1.1356090927752773e+00
      3.3960753121684817e-01 -2.4715394539255136e+00
      -2.2451028223806220e+00 -3.3315603752126886e+00
      4.5114631958415458e-01 -5.3077588645371143e-01
      3.0387111348801619e+00 8.6623379364195374e-01
      1.9044333721208113e+00 -3.0001388940699187e+00
      -6.2835965792014259e-01 1.4891555762924986e+00
      -2.7775688874682030e+00 2.2695988911272980e-01
      2.7141287138024328e+00 -8.8326281268116003e-01
      4.6649405784384861e+00 -1.2437160239704805e+00
      4.2133641042317524e+00 -1.0839760856116533e-01
      3.2515657065173746e+00 1.8734852722905897e+00
      4.8144812274696802e+00 1.2636651481374661e+00
      -1.1898196274666069e+00 1.2178944245980905e+00
      -1.2314006975103839e+00 8.9119376215264956e-01
      -3.2620988793625725e+00 6.9643677470441667e-01
      -2.5096701685874900e+00 1.5336194271500194e+00
      -1.7866563941813607e+00 -3.9781104727596767e-01
      3.8772732507769030e+00 -1.9672837149317544e+00
      2.4634575388964675e+00 -9.9702259669035864e-01
      -3.2115359191387443e+00 -1.1901194651980600e+00
      4.2397500744153573e+00 -2.3584610275987070e+00
      2.0391455911669700e+00 1.3768679623321975e+00
      -2.2711824455459135e+00 -6.0186624177074755e-01
      3.2293744007739580e+00 1.8827804495648917e+00
      -1.3839436972067132e+00 -4.9402231498637796e+00
      -1.8340693344149270e+00 -6.0366859077882653e+00
      -1.2550053205259466e+00 5.7761900836117730e-01
      1.2008520832380502e-01 3.3207297169351517e+00
      5.7906430213716336e+00 2.3101404013402789e+00
      2.8278777275052587e+00 -2.9324413268713081e+00
      -2.1001377438262763e+00 -5.1307300939156253e+00
      -2.6818565252245459e+00 -8.3621004368998675e-01
      -3.7641501169040854e+00 4.7709144760308657e+00
      -1.3423513724896645e+00 6.9401895390684842e+00
      -1.9652100301580939e+00 -5.0064132151245442e+00
      2.8649171371541382e-01 -3.2178774344377743e+00
      -2.7969627849554568e+00 -3.1391379323323245e+00
      4.1050730936580555e+00 2.6796761484919558e+00
      -4.0860141487311409e-02 -2.8278825653111586e+00
      1.7574730653677406e+00 6.7995621485364763e+00
      -4.5581924320679690e+00 -1.1384109260008710e+00
      6.8558084694219721e+00 6.9135325241334806e+00
      5.6668095978639306e+00 1.5398309488973327e+00
      -3.1218661177479015e+00 -3.3224287460279733e-01
      -3.2278438301730015e+00 8.3902826683621734e-01
      2.7442490384242091e+00 -1.9792568974200453e+00
      1.5139612732978691e+00 3.8623996215273264e+00
      1.0543492801685805e+00 3.4163343651341909e+00
      1.3329149661546100e+00 -9.0590774665833929e-01
      -1.7291571997967947e+00 -1.5388454346226175e+00
      5.5926929052134999e-01 -6.6772825387748069e+00
      -1.0668107340194027e+01 -2.2320828149998642e+00
      -2.8537398909103677e+00 -9.5249313004162528e-01
      -1.9648264402068953e+00 1.8696246999111126e+00
      -1.4518376633961805e+00 -4.6082212803405165e+00
      -1.2003166743740488e+00 -2.0414296753269010e+00
      -2.0504441171358301e+00 -4.7555945900446623e+00
      5.7884209142848320e-01 3.0530064370494685e+00
      -1.1378533043123307e+00 -4.6763428978015948e+00
      5.4315983378587340e+00 4.3200593480656382e+00
      -7.7459577201924157e+00 2.0173298425891235e+00
      2.7769948892372787e+00 -1.9997392709065279e-01
      1.9084705988345099e+00 -5.6420384795492584e-01
      -2.5328617578477171e+00 -4.5654655885418007e+00
      1.3143989678726986e+00 -4.1518379956104540e-01
      3.9870047725912126e+00 2.7033510290001814e+00
      -5.5344232238175173e-01 -1.4083350135715109e+00
      -2.2551356097747743e-01 -8.9576436959838202e-01
      -1.4948629251812404e+00 1.7108104695744779e+00
      3.6146037455377171e+00 -1.7059685748129523e+00
      5.4208926955769350e+00 -6.3975922890740100e-01
      -4.6566834612929320e+00 -2.1500272194480479e+00
      3.0636179552011926e+00 -4.0068147045544507e+00
      -5.7308886685407701e-01 -1.9351210185695071e+00
      -4.7343026503956520e-01 1.4255705100830680e+00
      1.1327169759777715e+00 5.8984158524410111e+00
      8.5694579088245715e-01 -8.3024940601348991e+00
      -1.7303603773699481e+00 -1.9077164732902030e+00
      4.0074602618507260e-01 -5.1903195619755760e+00
      -3.7838214455209354e+00 -4.6830704014770896e+00
      -4.9296801349218926e+00 6.6021128274892886e+00
      8.9839430539159360e-01 -5.6505305224036855e+00
      1.1964743035948806e+00 -4.4734127760504716e-01
      -1.7804018611116479e+00 -2.5631664407704449e+00
      2.0710652243930139e-01 -5.8766991422398507e-01
      -1.1405236135844671e-03 1.8738613426549147e+00
      2.5734923708606017e+00 -4.1610700764266211e+00
      1.1051050587309683e+00 -1.0153282567141315e+00
      5.6377185448402045e-01 -1.1926342529171925e+00
      3.3915598448316402e+00 7.2548371006758261e-01
      -5.0226621385216870e+00 2.6086227580522059e-01
      -2.9463528953864686e+00 1.7740413581477552e-01
      4.3067433104657740e+00 -2.1370348538588670e+00
      2.3520825318518206e+00 -3.7700688372083877e+00
      -2.6203972925345389e+00 5.5106182089881095e-01
      4.9352746218115771e+00 3.4861532762337530e+00
      1.8735779359324840e+00 -7.6517642859902359e+00
      3.7810616884497017e-01 -8.7371409102949504e-01
      1.5525402263717989e+00 -6.4715445328162877e+00
      -1.8363140244951914e+00 -1.0647332886803255e+01
      -5.2114036896480451e+00 1.1076538118537604e+00
      3.3059572284180856e+00 -3.6410878758821204e+00
      -2.9830238845264958e+00 -4.1144948635709139e-02
      -5.5432989427063606e-01 7.4563980463827229e-01
      -6.4692496327227803e-02 -5.0716433751125436e+00
      -2.3843126910904977e+00 5.3965827855419342e+00
      1.0869626285574543e+00 -1.6880650841238429e+00
      6.2810501218269055e-01 -3.0990941459311196e+00
      3.4120048284179294e+00 -2.9638071302717086e+00
      -5.9016924047006336e-01 -2.0282073623049746e+00
      -2.2392767034636361e+00 -1.1311804147478171e+00
      6.2645138648693333e-01 3.0174266168283532e+00
      -1.7043787942222774e+00 -4.8003972724946724e+00
      -3.1149558395180073e+00 -2.0194479032491035e+00
      -2.8970502640054168e+00 -7.8209966246347462e-01
      7.5228574650472000e+00 7.2016984073583001e-01
      -4.0229482469444076e-04 -6.7920546389610505e+00
      4.7389372242467109e+00 -7.7750865169511441e-01
      7.3476637777706122e-01 -6.8140388838066253e+00
      -3.2010685610288969e+00 -5.6924358697250881e+00
      -6.6648783272657983e+00 5.2305605635539614e+00
      2.7075558742249561e+00 4.1737575216161282e+00
      3.6016456703249653e+00 -6.1557506663416772e-01
      -1.4320381398382533e+00 -3.6432775150386818e+00
      -6.7580858795552548e-02 -2.4946658864749400e+00
      -4.8528040018791646e-01 4.2857046993262298e+00
      -4.0625372786032932e+00 -1.9988653715267191e-01
      5.0633778175148259e-01 4.5064048477774632e+00
      3.1938046943055980e+00 -2.9235040429056407e+00
      -1.9827389223887040e+00 -1.9963029200916784e+00
      -3.8932128562328840e-02 1.3555120593097680e+00
      1.6926556931423842e-01 5.4390094345584461e-01
      6.9273373322824816e-01 1.9261880649450132e+00
      -2.4224072700493777e+00 -9.0020289527248465e-01
      -1.4368306402663575e+00 7.4423069564542144e-01
      8.9828448476027600e-01 -6.5469725107333210e-01
      -7.9318151395533265e-01 -2.6200540235929206e+00
      1.2695020756525517e+00 1.1758075793135224e-01
      -2.3476080717676756e-01 -3.6593271387043322e+00
      -2.3877905471253658e+00 -4.7306221892129258e-01
      -2.3072924084048068e+00 -4.6765464205767376e-01
      -8.6143225603340201e-01 -1.0755882250389976e+00
      2.7226831772464704e+00 3.0153891900213021e+00
      9.6167803219538728e-01 3.4715323412992971e-01
      -1.4362800600683825e+00 -1.5085984980393163e+00
      -1.7518513809072020e+00 2.2307509392239955e+00
      -1.3728715459715042e+00 8.8188108935889697e-01
      2.1258457640202448e+00 2.7379563636443707e+00
      -3.4762208015724885e+00 -3.1716683560073302e+00
      2.4210871812448818e+00 -1.9654204477449215e+00
      2.4999714933038315e+00 -3.9110635403528424e+00
      1.8151270978585330e+00 4.9016615654513040e-02
      4.2890416633830117e+00 2.3998096196474856e+00
      -7.4928950693955576e-01 -8.0820486911448064e-01
      -4.2175812903456764e+00 -5.1662592037953636e-01
      -2.5686928306587928e+00 -7.1602810171172582e-01
      -1.5175432691856829e+00 -1.4808937706552050e+00
      1.5897338852748655e+00 4.0315038748557646e+00
      -1.4112341205624304e+00 -2.7859958719875721e+00
      -2.4518286313485045e+00 -1.2550263791358964e+00
      1.1458036115626820e-01 2.8712358988305917e+00
      -8.4310442269071229e-01 -2.0558493286784571e-03
      6.5198342870087123e-01 5.6538366144714969e+00
      4.0529883881833868e+00 -1.1838548498149459e+00
      5.5639253449912129e-01 -1.1290815638655722e+00
      -1.8724342852097338e+00 -2.2985058415663713e+00
      -1.4882192110539918e+00 -2.5124628059418104e+00
      -8.6087589020822386e-01 -3.5967615755476534e-01
      5.0147229329801157e-01 2.2239046739256763e+00
      -2.0723925535788909e-01 1.0813389497837289e+00
      1.1549619807799629e+00 -5.3644325138937921e-01
      -3.8387195199840884e-01 1.5969800808249028e+00
      -1.4135217588619706e+00 5.1765421428869809e+00
      2.2560542923817200e+00 8.3553490288881915e-01
      -6.1817060546590907e-01 -8.0588083839069535e-01
      -2.3580962671199250e+00 2.6318765546941698e+00
      -2.6791551508296880e+00 -4.1411912646765954e+00
      -1.2490625119946908e+00 -9.5648946444492644e-01
      2.2813085532798083e+00 -8.4663227627268856e-01
      6.6083393925708653e-02 5.1846458713989918e-01
      -1.1708821830050282e-01 -1.3419807570613356e+00
      -2.2144525125327674e+00 1.3262328868353037e+00
      -2.8144282704161188e+00 -1.4029519427395096e+00
      3.7263414158445682e+00 2.4378383088619407e-01
      5.6648344994868538e-01 -2.6950742104223981e+00
      -2.9892171201832540e-01 4.2867440009596725e-01
      -1.9306222970461742e+00 -1.5209251876622287e+00
      1.4432703671172353e+00 -1.5642716386797231e+00
      3.5520851437374001e+00 -4.6581944857212383e+00
      -1.3213140012867033e+00 -2.0129944733563869e+00
      1.7068222807726987e+00 8.5443167655741958e-01
      3.7197896329876712e+00 -3.0399762209735387e-01
      2.7436630718625215e+00 4.5906328783104051e+00
      3.0590259879743567e+00 -5.1947699218547683e-01
      4.1205497684004339e-01 1.4483304258806133e+00
      1.3568112838786603e+00 5.4434727880207658e+00
      -2.2246934541495929e+00 -3.2065757151181473e+00
      3.4100181093538146e-01 -2.4949563204340022e+00
      1.0414382768347774e+00 -9.8980116982795285e-01
      3.6241081946562947e+00 -1.0328767688487923e+00
      4.9931763714464517e-01 -5.6370349763223393e+00
      -1.7823532416698615e-01 -1.4686905376872847e+00
      -1.9576598459955610e+00 -9.2247013510622489e-01
      2.2582104425001814e+00 -4.4879637462767787e+00
      -7.5030601039487355e-01 2.2888444737689881e+00
      -3.6678989037934628e+00 2.4780017733177284e+00
      -5.1093877686049716e-01 -1.0847228314684230e+00
      3.8538998378263494e+00 -1.5804069818862705e+00
      6.2067671830063462e+00 -4.7363078648329395e+00
      -1.7946022984911827e+00 -9.3032550849445550e-01
      9.0512449214730950e-01 -3.2146078553831234e+00
      -1.2607357942478115e+00 1.2228019819113702e+00
      1.8925172745266008e+00 4.1837750588089628e+00
      7.0445941253640463e+00 2.6601830574072344e-01
      2.6657375464051078e+00 -7.4090587340187088e+00
      4.5754418606557810e+00 -7.0169870261150014e-02
      5.0849578219501861e-02 7.0251013066544465e-01
      1.0157505556057493e+00 -8.4355024483819498e+00
      1.4588483744759171e+00 -1.9022884837718850e+00
      1.3252259538549616e+00 -1.2047397158723931e+00
      2.0231827182235884e+00 -8.5449761610162174e+00
      -8.6997088539274015e-01 -1.4639453971972720e+00
      -5.4977314063270093e+00 6.2388407829191062e-01
      -1.3420000019342835e+00 -5.8368566977744907e+00
      1.3329045361278762e+00 5.0438352543343781e+00
      -5.3276880522975800e-01 -2.0228711503206842e+00
      -7.5503977567660308e-01 -2.0565942459926370e+00
      3.8124630852063000e+00 5.7827217785417093e-02
      5.2166272495738335e+00 1.7133086845730032e+00
      2.1114563209482871e+00 2.6267007474609523e+00
      -3.9883620935434529e+00 -4.3292183354871057e+00
      -7.1011817353779394e+00 -1.8911009090959401e+00
      -2.4096787895687424e+00 -4.5945916646520957e-01
      1.4360400019789401e+00 8.7795545762978833e+00
      -7.7215528853690818e-01 -5.6111496223663258e+00
      2.4336588238401227e+00 -9.9694775571182048e-01
      -2.4680898444669293e+00 3.5581969514407591e-01
      -2.2298690903486995e+00 -5.7631573351361736e+00
      -2.7942911421369798e+00 -4.5783735028471577e+00
      -3.5740972408349609e+00 6.0048939529946477e+00
      -2.8550253420563356e+00 -8.9877583233195524e-01
      -6.5293477001779321e+00 1.2673230990048105e+00
      5.3429162942154740e+00 4.0416897011656447e-02
      4.0149042986041067e-01 -3.5813231761582371e+00
      -3.0302631067324781e+00 8.7618423512714489e+00
      2.3479334908719731e+00 -7.6731711471795263e+00
      -8.0359990039417917e-01 -9.9568528234678016e-02
      2.3352675191283510e+00 -7.5685134130025777e-01
      -1.5037453066779007e+00 1.2446041238988903e+00
      -3.6275807664953463e+00 5.3910083827880619e+00
      -3.2306907744778441e+00 1.3548067448303502e+00
      6.0025647527539605e-01 -2.3203480301139368e+00
      -1.3788018302294541e-01 1.2443226720670433e+00
      -5.0306191577775224e-02 1.0755057773525123e+00
      -7.3175342824343836e-01 -6.4677996163759055e-01
      -2.3133578673913929e-01 2.1082949578139323e-01
      -3.5010447225959180e+00 -5.0276692422638689e+00
      -2.1993174324414677e-01 -1.3380322668340352e+00
      -4.4470930799035866e+00 -2.6928342795054356e+00
      6.0983485855705428e+00 9.9147187973102486e+00
      -2.3129056329403477e-01 1.3699767013162187e+00
      -6.2009568369275447e+00 1.0494158867263119e-01
      3.9177098767837855e+00 3.9771156848538652e-01
      -3.1265738428644334e+00 -5.2829863255947505e+00
      1.5054869458337834e+00 2.1523840426931451e+00
      4.9348189628800343e+00 -3.1133757348276564e-01
      -1.2349659916473872e+00 -1.5876441743618148e+00
      -2.6359679812839714e+00 2.2535142948938804e+00
      3.4453461007094273e+00 -1.4936428274633051e+00
      -5.4231910387935933e+00 6.3459611347920286e-01
      1.7548461363582690e+00 4.9869450579477599e+00
      -9.9058229851975169e-02 1.5572633074884415e-01
      1.6848468416286058e+00 -5.9213622394046928e+00
      2.0029766288213170e-02 -5.4129447489148479e+00
      3.6975266714962625e+00 2.9169654347039442e-01
      -3.1329204415946510e+00 3.3129153176353099e+00
      3.9040991493497135e+00 -1.3730151065180951e+00
      -6.0922281557058522e+00 2.2823541866010815e+00
      -3.4612474645630433e+00 3.3062812704556546e+00
      5.5896489321006193e-01 -3.7563872903705362e+00
      -2.0921286497847120e+00 2.7357455882359680e+00
      -3.4876936094913291e-01 -3.6347539046421322e+00
      3.1954725924313663e+00 -4.3458273059839354e-02
      6.2699494914910492e+00 -4.0122778507106022e-01
      2.9978477240980106e+00 -3.1733485856665244e+00
      5.5132685107599775e+00 5.1662797107802048e+00
      -2.9418172413789931e+00 -3.3233940883796769e+00
      -3.4908253032853334e+00 -7.5510092925256274e+00
      5.6811349000876978e+00 -6.8292963255998931e+00
      -5.4292140495161210e+00 3.0204986274277470e+00
      6.4531398673818199e+00 -1.7652087779792565e+00
      -1.0172737760623941e-01 2.3570975703222188e+00
      1.9173715990263549e+00 -5.5234860110350628e+00
      4.6294649789354754e+00 -1.2514973594623808e+00
      1.5310468896377525e+00 -1.2439033185335786e+00
      -3.2489291798485538e+00 1.0347762170354066e+01
      3.0756095566966204e+00 -1.9252201710729393e+00
      -9.1815403646901057e+00 4.6736868071462345e-01
      3.3765645054240218e-01 -3.7308379155820398e-01
      -2.5842387300524394e+00 -6.5082752274354672e+00
      1.4417891235519542e+00 3.5453705560173510e+00
      -1.8363261975861586e-01 -2.9329965674986318e+00
      5.1985561213162967e-01 1.0774235475313761e-01
      5.4252763129562132e+00 1.8647365487490128e+00
      3.4971016580323226e+00 -4.0214748757288117e+00
      -3.0014653859513341e+00 -6.5573545003811162e-01
      -4.6378649716005560e+00 -4.4228870486501393e-01
      -1.9306376026918595e+00 -8.0413264923451333e+00
      2.1888607559755786e+00 2.4009317706927635e-01
      -1.5854803207840964e+00 2.9680207060901100e+00
      2.2509938052878753e+00 -2.7837197845898132e+00
      6.2221349277223625e-01 2.2516238818064824e+00
      1.3229042876666841e+00 2.9164499610674142e+00
      4.9940265078315456e+00 1.6128086002825792e+00
      5.4956272706744813e-01 -1.8038268292503499e+00
      -4.0168915754888372e+00 4.7487506669922652e+00
      -7.0738137971849568e-01 -4.6565965809142709e+00
      -5.0829266413968872e+00 -4.6242869520286632e-02
      2.2036787754037870e+00 -2.8782135010275667e-01
      -8.9328010809468616e-02 -4.2263221927023809e+00
      4.0639387225641297e+00 -6.8463548183408343e-02
      -3.7973208584282632e+00 2.3606169207262933e+00
      1.7202745171463991e+00 -3.8850018745512072e-01
      -2.9130416562958765e+00 1.2793411296022659e+00
      3.2741349877507639e+00 -1.8378674913790263e+00
      -6.8542989838259738e-01 -4.4805551472417839e+00
      2.2061785490024319e+00 -9.2972597584585359e-01
      -1.8454395909589376e+00 -7.0325054219870919e+00
      2.6327947489977612e+00 -2.7756812036938472e+00
      -2.0538417733291485e+00 2.7375206753591295e+00
      3.2957697286120275e+00 8.6641265836886461e-01
      1.8912844263809823e+00 2.6564313356255704e+00
      -9.3710360469034648e-01 1.5276257114345198e+00
      -8.5876026707186615e-01 1.1425140325849097e+00
      7.4116181874088277e-02 8.6428654709631758e-01
      1.5676047064812468e+00 2.7179266598242231e+00
      -4.5347321551030190e-01 3.2945766259978231e+00
      -1.9745227218212289e+00 6.4537180219798296e-01
      9.7634941454127522e-01 6.0499904279447458e-01
      -3.3384529037581010e+00 -1.2233356907659028e+00
      1.1110883882463768e-01 5.8345570707944763e+00
      1.5228982615968392e+00 -7.5810247865027147e-01
      1.2445437008487341e+00 2.1974194422627802e+00
      1.0368501127428580e+00 3.2527912365682915e-01
      -2.5214972295692819e+00 7.1363294229648433e-01
      1.9679527786744522e+00 1.7823170518783993e+00
      -1.8420900657505301e+00 8.7846744972762303e-01
      7.4650857297117523e-01 1.5472909735004936e+00
      -6.3891021705977495e+00 -5.4948664622080801e-01
      -2.9139246403960919e+00 -2.1621128878420031e+00
      -1.0173063478005737e+00 -8.9545041027316363e-01
      -2.2528563124875811e+00 -1.8914203077479952e+00
      5.4701085776721070e-01 -1.2042280208118210e+00
      1.2109446988651531e+00 -2.4721971936205782e+00
      -2.9530146010514211e+00 4.6513134899420527e-01
      9.4979402627346377e-01 9.1147277465788523e-01
      -2.2748891517131047e+00 -3.2832831532265798e+00
      2.4182613710154688e+00 8.3632166297365906e-01
      6.6552033546364109e-01 1.8733331392393699e+00
      -7.5826509205825621e-01 1.3873844666819297e+00
      2.0305534904123443e+00 5.8244875636046867e-01
      1.7580460306322582e-01 8.9526796744937553e-01
      -8.2723279420695728e-01 5.6205428534833004e+00
      3.0930089402445082e+00 9.0352472020673935e-01
      1.2740699878969433e+00 -2.0609637729336989e+00
      -5.5258166402550613e-01 -6.6706098439441208e-01
      5.2527665309965754e-01 -3.0100318132739297e+00
      2.0531392374057762e+00 -2.9542376562359256e+00
      8.1541340443042876e-01 1.6892544817976902e+00
      1.8053922195514267e+00 -8.2313543445466014e-02
      -3.7905350742555068e+00 2.8910185225049762e-01
      1.2673344176387020e+00 -3.7386282581898374e+00
      8.9880262485605700e-01 -2.3234905347553196e+00
      -1.9194125430775702e-01 -1.6457475854199437e+00
      1.0338212736702477e+00 3.3031624622646172e+00
      3.2003966635297787e+00 1.4450232400975764e+00
      -2.2434862278106813e+00 -2.4710700379668524e+00
      -2.2798237674780455e+00 -1.0031123021487478e+00
      9.3783790384400934e-01 5.9163907590133447e-01
      -3.5619702720799049e+00 3.2104441786676028e+00
      1.8790110598791290e+00 1.2368128059661654e+00
      -9.7662527118747300e-01 9.4175361412135106e-01
      -2.1550118467553387e+00 4.2681844292149174e-01
      -2.9214551845381176e+00 1.4155426572424248e+00
      2.2028387605190192e+00 2.4492679551046219e+00
      -2.3484698203726273e+00 -5.3531260708990780e-01
      7.8287012274556798e+00 -2.1774915159195651e+00
      3.6150485784162362e-01 -1.7641432865270263e+00
      8.0081783000034434e-02 -2.1690467209790962e+00
      -1.3959343804222579e+00 -3.5837119653300586e-01
      1.9439697647508827e+00 6.5300222998479263e-01
      -6.2842709171359068e-01 -3.8254458424537541e+00
      5.6929970373324377e+00 -2.7332561344289039e+00
      4.9150236066966650e+00 1.3167889149900847e+00
      6.4902604251770724e+00 -1.9249743175049177e+00
      4.4463415134369750e+00 6.3772645499718927e-01
      -2.2334798215954081e+00 -2.1673784813110430e-01
      3.1412709728138619e+00 5.3242273811347554e+00
      4.0883934194229239e+00 3.6876452931031252e+00
      -1.2451156132311401e-01 -4.0714892812812966e+00
      4.9958631142618404e-01 -7.6444641228032000e-03
      1.8394533327667510e+00 1.4828402751186618e+00
      -6.5422343291891236e+00 8.9463604388302961e-02
      -2.7489834175843932e+00 -1.4991383401117440e+00
      -1.3496737157746039e+00 -9.8238856524045237e-01
      2.4390185507585977e+00 9.2939187869688478e-01
      5.2778006465839669e+00 1.0544115879335407e+00
      -2.8370191845119330e+00 -2.7112141183439378e+00
      3.3459846057725406e+00 -4.0820846112342446e+00
      -1.8600385156843422e+00 -4.6256873898796806e+00
      -7.0967363851378606e-01 3.2828565739106867e+00
      -3.8098128272032872e+00 -1.4511965487274321e+00
      9.7475091785369568e+00 2.9632962981671507e+00
      4.3689477248870086e+00 2.7715812727866083e+00
      3.4169072164008716e+00 -4.5895570182732408e+00
      4.0165141589687670e+00 -3.2235225442485210e-01
      1.1572658835972360e+00 1.7318716649772266e+00
      -4.7371376047023445e-01 1.7727713409961845e+00
      3.2199748035962932e+00 -5.0905500667487615e+00
      4.0537566681087744e+00 -4.5123982037683463e+00
      -2.2043993719390351e+00 -4.3015231811488812e+00
      -5.1884785936788180e+00 -4.3322100303208009e+00
      -1.1509964216542153e+01 -4.6976336313973382e-01
      -2.7696137372680734e+00 -8.7949795389533791e-01
      -3.9966620456927524e+00 -9.0563259949198971e-01
      -4.2938797107993159e+00 4.2215531199493803e+00
      5.8167051487434493e+00 1.2008619750666612e-01
      -3.5721146126279018e+00 -3.3629193987940780e+00
      2.0129379929279687e+00 -7.3006948902334008e+00
      -8.9920406259507890e-01 3.8547116387299178e+00
      -5.6187063898974756e+00 -1.6588933401152200e-01
      -1.4093475116341021e+00 -8.4293914818330207e-02
      6.0258675057874522e-01 -1.6185486278964263e+00
      2.0616557537046152e+00 3.2341029750324992e+00
      3.8159295645030098e+00 -8.8273077685740304e+00
      -6.6296555454805994e-01 -5.2247563936246633e-01
      -1.4649445379117916e+00 2.6343633603878938e+00
      -1.2833808869391141e+00 -6.0509323029145641e+00
      -4.3104607513758229e+00 -3.0141366449133620e+00
      7.9177148839583311e-01 1.1111854698511023e-01
      7.5859467262918234e-01 -1.2262782021730416e+00
      -4.5898708362583918e+00 4.2162650965365414e+00
      -1.4743897784035545e+00 -1.2083837343790997e+00
      8.6861738868202099e-01 1.8544354966969812e+00
      -5.2929126649642189e-01 -1.0154906482515242e+00
      -3.3207355076287293e+00 -4.3010643991882391e+00
      2.6393901354068139e+00 3.1891286134674308e+00
      1.1947012978320246e+00 -2.7594789064879834e+00
      -4.7689349439599527e+00 -2.7402781454521454e+00
      6.6018589499957283e+00 4.3235981257819184e-01
      -5.7012283123295067e+00 -5.1768449776178882e-01
      3.2533939324306251e+00 -5.3497744596393637e-01
      -5.5908412710342841e+00 2.7369390776081504e-01
      5.5988386290026215e-01 3.5375437049531064e+00
      1.0579496932684687e+00 1.1049053717849855e+00
      -5.6853262990829707e+00 -7.0085738055777036e-01
      4.7905594954079538e+00 8.3885630013396426e+00
      -7.0059677164048679e+00 -8.5668063108067349e-01
      -2.8181605333701465e+00 -2.9212784675071943e+00
      3.4059422339289265e+00 3.4248330623884504e+00
      -1.3530899496304383e+00 -2.5450087947583461e-01
      -5.2504741227156355e+00 7.2361831489907296e+00
      4.2330632089982223e-01 -2.5965084072456468e-01
      1.0005193142942301e+00 6.1862174198736977e+00
      2.5496437887221899e+00 9.4461018959091703e-01
      6.5936347625188505e+00 4.3724292052802466e-01
      -2.1436904494922273e+00 2.5127198454459282e-01
      -4.8056456078917931e+00 -4.0580770540218882e+00
      5.5327735309031461e+00 -3.7165515494612626e+00
      7.6449457504511886e-01 -3.8973080632153705e+00
      -1.3493193582349217e+00 5.9537269726705189e+00
      8.2065606841235272e+00 2.7433213696940029e+00
      -4.2300259296075309e+00 3.2814091722410073e+00
      3.1074435143164489e+00 3.8029082604202286e-01
      4.9427600741227566e+00 1.5784779347317610e+00
      -2.8300432993306606e+00 -8.0478472257139124e+00
      3.5914935702695425e+00 7.7712253740838397e+00
      -3.4672268519426636e-01 1.9723328588591529e+00
      -5.4400443756188510e+00 4.2453052952246297e+00
      -7.7122818875892196e-01 4.4508690878836932e-01
      2.0706978676398213e+00 -4.2131856755868630e-01
      -8.2163190081954163e+00 -1.0856461448038386e+00
      5.2128946558341029e+00 -4.4781812446574337e-01
      7.2803192545290081e+00 2.4639142583150240e+00
      8.6243438855419399e+00 -1.5967729608363892e+00
      1.2817820372071083e+01 -1.3744199711234797e+00
      1.5366707398893324e+00 3.3647737879087869e-01
      -5.9107486714329891e+00 -6.5503217444852313e-01
      5.4824248753553020e+00 -4.7782576677812845e+00
      -7.6138941745624222e-01 -5.0701770047411747e+00
      -3.8968234668199315e+00 7.0304143863113548e+00
      7.3549459306791718e+00 1.0274559920718489e+00
      1.3680267767481498e+00 3.6584280015500004e+00
      -8.5540007373397742e-01 -3.9623325966854339e+00
      2.2791536254453835e+00 3.7263343392834575e-01
      -1.2919156622681367e+00 -7.1001073207642653e+00
      -3.4562929262531905e-01 6.1577580549093822e+00
      4.9736619698524711e+00 1.1596852414730728e-01
      -1.7914594668082944e+00 5.0257780180694329e+00
      -2.9531583230555656e+00 4.2983383938971906e+00
      2.6265779349891294e+00 -8.9105264265875050e-01
      -8.3450914419410047e+00 -1.8404288051739639e+00
      4.9367051015576138e+00 5.5654428709456805e-01
      -1.2405966397713459e+00 -1.5288464826617145e+00
      5.3050954925714544e+00 9.9018085483333185e-01
      6.9768370989093063e+00 -3.1229579498462545e+00
      1.1600404370456283e+00 2.8934225030986562e+00
      -5.2997208977787542e+00 5.2989793392522455e-01
      4.0487670254884760e+00 -2.1969059709362839e+00
      -1.7727246695518901e+00 4.2513445887826645e-01
      -2.2293919436984502e+00 3.8753457673188385e+00
      1.5315514242352252e-02 -4.5392492224090422e+00
      -1.2318833189781415e+00 5.8735731165399292e+00
      1.2689767100680178e+00 -2.3333128327236037e+00
      2.1141058292374351e+00 -4.2407797324713039e+00
      -4.6865208857369485e+00 -1.3470993034418774e-01
      2.9425193949937918e+00 3.0515770416168198e+00
      6.5627401489335782e-02 -3.7050334228342763e+00
      7.9789732464637508e-01 -3.5068697822182521e-01
      2.8029194832883669e-01 2.7374277905658655e+00
      -1.8247017071352165e-01 -2.3728453914039851e+00
      -7.4133704286636073e+00 1.2266771581411599e-01
      1.7311132165956327e+00 -6.4019507586588906e-02
      -3.6575417987328316e+00 1.8857819147960817e+00
      5.8239241253631047e-01 3.6914274665844092e-02
      5.9743644032198526e+00 -6.4627084782183264e+00
      1.8727297644043823e+00 -1.4573998006834737e-01
      -2.0795869417183992e+00 -1.5467098267620860e+00
      5.1056856679030038e-01 -1.6666225710158862e+00
      -3.2146647699202178e+00 -3.6567430736906092e-01
      2.3602957428335927e+00 1.7779508276751350e+00
      7.7686824628724338e-01 4.6163986821516739e-01
      -1.9518961583780592e+00 1.7720655604099869e+00
      -8.1740929868234691e-01 4.4160752744831394e-01
      -3.9369165554196223e-01 -7.5865950917225389e-01
      -1.7227149297599915e+00 7.7410220128389751e-01
      2.6636430947395402e+00 3.2756259349896539e+00
      -5.3899286551558145e-01 -2.6506467241336934e-01
      1.3630160092323906e+00 -6.0889840621531031e+00
      -7.9025314900579491e-01 1.3043053294448477e+00
      -1.6914250818520704e-01 4.3542846950770819e+00
      -2.2998199400573438e+00 -3.3809140539409993e-01
      -2.4792064399939595e+00 1.5021478493129587e+00
      9.3598943814614810e-01 3.7870595864872247e-01
      -2.6164641972377631e+00 1.3072284379801935e+00
      1.3282643861600016e+00 3.6603716588461604e-01
      -2.1236134794685313e+00 -1.2106836934949157e+00
      5.0049173039192052e-01 1.1437051961199078e+00
      -1.5573333290662659e+00 1.8617210226545861e-02
      -1.7569047609903672e+00 7.0322429992894686e-01
      -2.9902172959702602e+00 1.8068054203615633e+00
      -2.1511983293213248e+00 -4.2164439693578587e-01
      3.3470923511771735e+00 6.0689311911276533e-01
      -1.4745211554468649e+00 -4.9172552697891542e-01
      -9.4155953924467473e-01 6.5814543660174829e-01
      1.3727283590375234e+00 -1.8508831958643401e+00
      -1.7449465874590266e+00 1.8163284660198395e+00
      1.9043175568129818e+00 1.2223942805213448e+00
      3.6563291024631162e+00 -1.5317445618988605e+00
      -3.6094791047576735e+00 1.3529076390142687e+00
      1.9038764016792173e+00 3.4893944566584052e+00
      3.1985967768128920e+00 1.6832336624965882e+00
      1.8483686810363638e+00 5.8585236538022150e+00
      3.3636549899934667e+00 2.3904509162646051e-01
      -5.8312781863177832e-01 1.4614835008678713e+00
      3.1916625745838916e+00 3.0849734280240648e+00
      2.5049291865603034e+00 -1.6003642749483624e+00
      3.7065886705233133e+00 -3.0150889177290168e+00
      -1.4201069443036698e+00 1.7041073546224719e+00
      -7.4469138047354422e-01 1.5730939878698580e+00
      -1.2739211460115667e+00 4.5119489320937802e+00
      -1.9971484321442723e+00 -2.9588966029266470e+00
      9.6618998732801198e-01 -3.6057882461618020e+00
      -1.4288254038980119e+00 -2.5375977542765709e+00
      8.6695567773512072e-01 2.2734817987428055e-01
      3.7241562297668871e+00 -4.1364690402483939e+00
      3.9167447554194559e-03 -3.1279640428396494e-01
      -1.8789031747724538e-01 -1.3567915092400968e+00
      3.0388073724205933e+00 -8.4876400347201952e-01
      -4.8592097276918711e+00 -1.2042005425632636e+00
      -3.6003488536661687e+00 4.3619907887717801e-01
      2.6981817421265846e+00 2.8112355691016631e+00
      -2.9416854156293213e+00 -1.1403459783943522e-01
      -6.4053188532531480e-01 9.1414508852255327e-01
      -2.0702892231960330e+00 4.9630460495131299e+00
      4.0499575795056114e-01 1.7869394489840000e+00
      6.1109396461535148e+00 -2.9147827934288730e+00
      -4.2180845075175313e+00 -2.2423392837244416e+00
      -1.0737837314654424e+00 -3.2063503072628081e+00
      2.2952163398630607e+00 -2.2245267496365351e+00
      -3.0929371392259153e+00 1.4721130752750757e+00
      -2.5695291608891573e+00 -3.7327996823221747e+00
      1.1624846919207462e+01 -1.6840527860835406e+00
      -2.1904295050835132e+00 -4.6972329938352703e-01
      3.2952256018486934e+00 -8.5915164031567381e-01
      -1.2406757520747913e+00 -5.2128139307876973e+00
      -5.0720714636381015e-01 -1.2780575526312268e+00
      -8.6675361615515745e-01 -1.6852505250160201e+00
      -1.0966850664487231e+00 -4.9713258769954261e-01
      -3.8171876329656618e+00 -2.8389841089102772e+00
      -3.4980638292100199e+00 -2.7987393612342459e+00
      6.4924585393453720e+00 1.9591997575844708e+00
      -8.6188193658192063e+00 -3.8787811138731959e-01
      -1.3958824587511465e+00 7.8402334601196353e+00
      -3.8198994956920069e+00 5.2206621461070588e+00
      -7.3487899692240843e-01 2.1529715775630409e+00
      1.8847467486525473e+00 -3.8105392434460654e+00
      -3.1392627153981589e+00 5.2656792798244041e+00
      5.3938046845788368e-01 -7.0190678374079436e+00
      2.4389993298382024e+00 -4.6230803822397100e+00
      -3.0400211081121093e+00 -2.7162260670454481e+00
      -4.3020866934184038e-01 -1.0115126819614877e+00
      5.4958049828059590e+00 -5.4652907112819262e+00
      3.7510694994720315e+00 -1.4232621771368842e-01
      1.0717339085218784e+00 1.3901368010544668e+00
      -9.0908306256319182e-01 -2.6440708136340341e+00
      -1.5858264565967082e+00 3.4694810171895024e-01
      3.1032302995667744e+00 -1.8747838023454420e+00
      6.1313997830034017e+00 -1.4046253728234015e+00
      -1.1359853407906331e+00 -8.4215031543457339e+00
      8.3136050738132308e-02 1.6802101408889702e+00
      6.3836534550286768e+00 1.0680181956520249e-01
      -9.5617787492303155e+00 -7.0981470590539286e-01
      5.5775981197961588e-01 5.2164523205859936e+00
      -2.4207159374670622e+00 3.3218871349326866e+00
